digraph Tree {
node [shape=box] ;
0 [label="authenticationType <= 2.5\ngini = 0.459\nsamples = 23630\nvalue = [8418, 15212]"] ;
1 [label="prodDatabaseType <= 2.5\ngini = 0.366\nsamples = 19601\nvalue = [4729, 14872]"] ;
0 -> 1 [labeldistance=2.5, labelangle=45, headlabel="True"] ;
2 [label="buildTool <= 0.5\ngini = 0.482\nsamples = 6898\nvalue = [4108, 2790]"] ;
1 -> 2 ;
3 [label="databaseType <= 2.0\ngini = 0.091\nsamples = 3441\nvalue = [3277, 164]"] ;
2 -> 3 ;
4 [label="enableSocialSignIn <= 1.5\ngini = 0.476\nsamples = 269\nvalue = [105, 164]"] ;
3 -> 4 ;
5 [label="prodDatabaseType <= 1.0\ngini = 0.35\nsamples = 212\nvalue = [48, 164]"] ;
4 -> 5 ;
6 [label="Docker <= 0.5\ngini = 0.5\nsamples = 90\nvalue = [46, 44]"] ;
5 -> 6 ;
7 [label="gini = 0.0\nsamples = 44\nvalue = [0, 44]"] ;
6 -> 7 ;
8 [label="gini = 0.0\nsamples = 46\nvalue = [46, 0]"] ;
6 -> 8 ;
9 [label="applicationType <= 0.5\ngini = 0.032\nsamples = 122\nvalue = [2, 120]"] ;
5 -> 9 ;
10 [label="useSass <= 1.5\ngini = 0.128\nsamples = 29\nvalue = [2, 27]"] ;
9 -> 10 ;
11 [label="gini = 0.0\nsamples = 16\nvalue = [0, 16]"] ;
10 -> 11 ;
12 [label="enableTranslation <= 0.5\ngini = 0.26\nsamples = 13\nvalue = [2, 11]"] ;
10 -> 12 ;
13 [label="gini = 0.0\nsamples = 7\nvalue = [0, 7]"] ;
12 -> 13 ;
14 [label="websocket <= 0.5\ngini = 0.444\nsamples = 6\nvalue = [2, 4]"] ;
12 -> 14 ;
15 [label="gini = 0.0\nsamples = 3\nvalue = [0, 3]"] ;
14 -> 15 ;
16 [label="clusteredHttpSession <= 0.5\ngini = 0.444\nsamples = 3\nvalue = [2, 1]"] ;
14 -> 16 ;
17 [label="gini = 0.0\nsamples = 2\nvalue = [2, 0]"] ;
16 -> 17 ;
18 [label="gini = 0.0\nsamples = 1\nvalue = [0, 1]"] ;
16 -> 18 ;
19 [label="gini = 0.0\nsamples = 93\nvalue = [0, 93]"] ;
9 -> 19 ;
20 [label="gini = 0.0\nsamples = 57\nvalue = [57, 0]"] ;
4 -> 20 ;
21 [label="gini = 0.0\nsamples = 3172\nvalue = [3172, 0]"] ;
3 -> 21 ;
22 [label="Docker <= 0.5\ngini = 0.365\nsamples = 3457\nvalue = [831, 2626]"] ;
2 -> 22 ;
23 [label="devDatabaseType <= 3.5\ngini = 0.035\nsamples = 1739\nvalue = [31, 1708]"] ;
22 -> 23 ;
24 [label="enableSocialSignIn <= 1.5\ngini = 0.001\nsamples = 1649\nvalue = [1, 1648]"] ;
23 -> 24 ;
25 [label="gini = 0.0\nsamples = 1121\nvalue = [0, 1121]"] ;
24 -> 25 ;
26 [label="hibernateCache <= 0.5\ngini = 0.004\nsamples = 528\nvalue = [1, 527]"] ;
24 -> 26 ;
27 [label="devDatabaseType <= 2.0\ngini = 0.012\nsamples = 171\nvalue = [1, 170]"] ;
26 -> 27 ;
28 [label="gini = 0.0\nsamples = 113\nvalue = [0, 113]"] ;
27 -> 28 ;
29 [label="searchEngine <= 0.5\ngini = 0.034\nsamples = 58\nvalue = [1, 57]"] ;
27 -> 29 ;
30 [label="enableTranslation <= 0.5\ngini = 0.069\nsamples = 28\nvalue = [1, 27]"] ;
29 -> 30 ;
31 [label="gini = 0.0\nsamples = 15\nvalue = [0, 15]"] ;
30 -> 31 ;
32 [label="clusteredHttpSession <= 0.5\ngini = 0.142\nsamples = 13\nvalue = [1, 12]"] ;
30 -> 32 ;
33 [label="authenticationType <= 1.0\ngini = 0.278\nsamples = 6\nvalue = [1, 5]"] ;
32 -> 33 ;
34 [label="gini = 0.0\nsamples = 3\nvalue = [0, 3]"] ;
33 -> 34 ;
35 [label="websocket <= 0.5\ngini = 0.444\nsamples = 3\nvalue = [1, 2]"] ;
33 -> 35 ;
36 [label="gini = 0.0\nsamples = 1\nvalue = [0, 1]"] ;
35 -> 36 ;
37 [label="useSass <= 1.5\ngini = 0.5\nsamples = 2\nvalue = [1, 1]"] ;
35 -> 37 ;
38 [label="gini = 0.0\nsamples = 1\nvalue = [1, 0]"] ;
37 -> 38 ;
39 [label="gini = 0.0\nsamples = 1\nvalue = [0, 1]"] ;
37 -> 39 ;
40 [label="gini = 0.0\nsamples = 7\nvalue = [0, 7]"] ;
32 -> 40 ;
41 [label="gini = 0.0\nsamples = 30\nvalue = [0, 30]"] ;
29 -> 41 ;
42 [label="gini = 0.0\nsamples = 357\nvalue = [0, 357]"] ;
26 -> 42 ;
43 [label="enableSocialSignIn <= 1.5\ngini = 0.444\nsamples = 90\nvalue = [30, 60]"] ;
23 -> 43 ;
44 [label="gini = 0.0\nsamples = 60\nvalue = [0, 60]"] ;
43 -> 44 ;
45 [label="gini = 0.0\nsamples = 30\nvalue = [30, 0]"] ;
43 -> 45 ;
46 [label="searchEngine <= 0.5\ngini = 0.498\nsamples = 1718\nvalue = [800, 918]"] ;
22 -> 46 ;
47 [label="authenticationType <= 0.5\ngini = 0.16\nsamples = 787\nvalue = [69, 718]"] ;
46 -> 47 ;
48 [label="clusteredHttpSession <= 0.5\ngini = 0.015\nsamples = 398\nvalue = [3, 395]"] ;
47 -> 48 ;
49 [label="devDatabaseType <= 2.0\ngini = 0.031\nsamples = 189\nvalue = [3, 186]"] ;
48 -> 49 ;
50 [label="useSass <= 1.5\ngini = 0.016\nsamples = 126\nvalue = [1, 125]"] ;
49 -> 50 ;
51 [label="enableTranslation <= 0.5\ngini = 0.033\nsamples = 60\nvalue = [1, 59]"] ;
50 -> 51 ;
52 [label="gini = 0.0\nsamples = 29\nvalue = [0, 29]"] ;
51 -> 52 ;
53 [label="devDatabaseType <= 0.5\ngini = 0.062\nsamples = 31\nvalue = [1, 30]"] ;
51 -> 53 ;
54 [label="websocket <= 0.5\ngini = 0.117\nsamples = 16\nvalue = [1, 15]"] ;
53 -> 54 ;
55 [label="gini = 0.0\nsamples = 7\nvalue = [0, 7]"] ;
54 -> 55 ;
56 [label="enableSocialSignIn <= 1.5\ngini = 0.198\nsamples = 9\nvalue = [1, 8]"] ;
54 -> 56 ;
57 [label="applicationType <= 1.0\ngini = 0.278\nsamples = 6\nvalue = [1, 5]"] ;
56 -> 57 ;
58 [label="gini = 0.0\nsamples = 3\nvalue = [0, 3]"] ;
57 -> 58 ;
59 [label="hibernateCache <= 0.5\ngini = 0.444\nsamples = 3\nvalue = [1, 2]"] ;
57 -> 59 ;
60 [label="gini = 0.0\nsamples = 1\nvalue = [0, 1]"] ;
59 -> 60 ;
61 [label="hibernateCache <= 1.5\ngini = 0.5\nsamples = 2\nvalue = [1, 1]"] ;
59 -> 61 ;
62 [label="gini = 0.0\nsamples = 1\nvalue = [1, 0]"] ;
61 -> 62 ;
63 [label="gini = 0.0\nsamples = 1\nvalue = [0, 1]"] ;
61 -> 63 ;
64 [label="gini = 0.0\nsamples = 3\nvalue = [0, 3]"] ;
56 -> 64 ;
65 [label="gini = 0.0\nsamples = 15\nvalue = [0, 15]"] ;
53 -> 65 ;
66 [label="gini = 0.0\nsamples = 66\nvalue = [0, 66]"] ;
50 -> 66 ;
67 [label="websocket <= 0.5\ngini = 0.061\nsamples = 63\nvalue = [2, 61]"] ;
49 -> 67 ;
68 [label="enableTranslation <= 0.5\ngini = 0.124\nsamples = 30\nvalue = [2, 28]"] ;
67 -> 68 ;
69 [label="applicationType <= 1.0\ngini = 0.245\nsamples = 14\nvalue = [2, 12]"] ;
68 -> 69 ;
70 [label="gini = 0.0\nsamples = 6\nvalue = [0, 6]"] ;
69 -> 70 ;
71 [label="enableSocialSignIn <= 1.5\ngini = 0.375\nsamples = 8\nvalue = [2, 6]"] ;
69 -> 71 ;
72 [label="useSass <= 1.5\ngini = 0.444\nsamples = 3\nvalue = [2, 1]"] ;
71 -> 72 ;
73 [label="hibernateCache <= 0.5\ngini = 0.5\nsamples = 2\nvalue = [1, 1]"] ;
72 -> 73 ;
74 [label="gini = 0.0\nsamples = 1\nvalue = [1, 0]"] ;
73 -> 74 ;
75 [label="gini = 0.0\nsamples = 1\nvalue = [0, 1]"] ;
73 -> 75 ;
76 [label="gini = 0.0\nsamples = 1\nvalue = [1, 0]"] ;
72 -> 76 ;
77 [label="gini = 0.0\nsamples = 5\nvalue = [0, 5]"] ;
71 -> 77 ;
78 [label="gini = 0.0\nsamples = 16\nvalue = [0, 16]"] ;
68 -> 78 ;
79 [label="gini = 0.0\nsamples = 33\nvalue = [0, 33]"] ;
67 -> 79 ;
80 [label="gini = 0.0\nsamples = 209\nvalue = [0, 209]"] ;
48 -> 80 ;
81 [label="authenticationType <= 1.5\ngini = 0.282\nsamples = 389\nvalue = [66, 323]"] ;
47 -> 81 ;
82 [label="clusteredHttpSession <= 0.5\ngini = 0.499\nsamples = 125\nvalue = [60, 65]"] ;
81 -> 82 ;
83 [label="enableTranslation <= 0.5\ngini = 0.491\nsamples = 60\nvalue = [34, 26]"] ;
82 -> 83 ;
84 [label="hibernateCache <= 0.5\ngini = 0.436\nsamples = 28\nvalue = [19, 9]"] ;
83 -> 84 ;
85 [label="websocket <= 0.5\ngini = 0.48\nsamples = 10\nvalue = [4, 6]"] ;
84 -> 85 ;
86 [label="useSass <= 1.5\ngini = 0.375\nsamples = 4\nvalue = [3, 1]"] ;
85 -> 86 ;
87 [label="gini = 0.0\nsamples = 2\nvalue = [2, 0]"] ;
86 -> 87 ;
88 [label="devDatabaseType <= 1.5\ngini = 0.5\nsamples = 2\nvalue = [1, 1]"] ;
86 -> 88 ;
89 [label="gini = 0.0\nsamples = 1\nvalue = [0, 1]"] ;
88 -> 89 ;
90 [label="gini = 0.0\nsamples = 1\nvalue = [1, 0]"] ;
88 -> 90 ;
91 [label="devDatabaseType <= 0.5\ngini = 0.278\nsamples = 6\nvalue = [1, 5]"] ;
85 -> 91 ;
92 [label="useSass <= 1.5\ngini = 0.5\nsamples = 2\nvalue = [1, 1]"] ;
91 -> 92 ;
93 [label="gini = 0.0\nsamples = 1\nvalue = [0, 1]"] ;
92 -> 93 ;
94 [label="gini = 0.0\nsamples = 1\nvalue = [1, 0]"] ;
92 -> 94 ;
95 [label="gini = 0.0\nsamples = 4\nvalue = [0, 4]"] ;
91 -> 95 ;
96 [label="useSass <= 1.5\ngini = 0.278\nsamples = 18\nvalue = [15, 3]"] ;
84 -> 96 ;
97 [label="gini = 0.0\nsamples = 8\nvalue = [8, 0]"] ;
96 -> 97 ;
98 [label="devDatabaseType <= 0.5\ngini = 0.42\nsamples = 10\nvalue = [7, 3]"] ;
96 -> 98 ;
99 [label="gini = 0.0\nsamples = 3\nvalue = [3, 0]"] ;
98 -> 99 ;
100 [label="hibernateCache <= 1.5\ngini = 0.49\nsamples = 7\nvalue = [4, 3]"] ;
98 -> 100 ;
101 [label="websocket <= 0.5\ngini = 0.444\nsamples = 3\nvalue = [1, 2]"] ;
100 -> 101 ;
102 [label="gini = 0.0\nsamples = 1\nvalue = [1, 0]"] ;
101 -> 102 ;
103 [label="gini = 0.0\nsamples = 2\nvalue = [0, 2]"] ;
101 -> 103 ;
104 [label="devDatabaseType <= 2.0\ngini = 0.375\nsamples = 4\nvalue = [3, 1]"] ;
100 -> 104 ;
105 [label="websocket <= 0.5\ngini = 0.5\nsamples = 2\nvalue = [1, 1]"] ;
104 -> 105 ;
106 [label="gini = 0.0\nsamples = 1\nvalue = [0, 1]"] ;
105 -> 106 ;
107 [label="gini = 0.0\nsamples = 1\nvalue = [1, 0]"] ;
105 -> 107 ;
108 [label="gini = 0.0\nsamples = 2\nvalue = [2, 0]"] ;
104 -> 108 ;
109 [label="useSass <= 1.5\ngini = 0.498\nsamples = 32\nvalue = [15, 17]"] ;
83 -> 109 ;
110 [label="devDatabaseType <= 0.5\ngini = 0.457\nsamples = 17\nvalue = [6, 11]"] ;
109 -> 110 ;
111 [label="hibernateCache <= 0.5\ngini = 0.278\nsamples = 6\nvalue = [1, 5]"] ;
110 -> 111 ;
112 [label="websocket <= 0.5\ngini = 0.5\nsamples = 2\nvalue = [1, 1]"] ;
111 -> 112 ;
113 [label="gini = 0.0\nsamples = 1\nvalue = [1, 0]"] ;
112 -> 113 ;
114 [label="gini = 0.0\nsamples = 1\nvalue = [0, 1]"] ;
112 -> 114 ;
115 [label="gini = 0.0\nsamples = 4\nvalue = [0, 4]"] ;
111 -> 115 ;
116 [label="devDatabaseType <= 2.0\ngini = 0.496\nsamples = 11\nvalue = [5, 6]"] ;
110 -> 116 ;
117 [label="hibernateCache <= 1.5\ngini = 0.48\nsamples = 5\nvalue = [3, 2]"] ;
116 -> 117 ;
118 [label="websocket <= 0.5\ngini = 0.5\nsamples = 4\nvalue = [2, 2]"] ;
117 -> 118 ;
119 [label="hibernateCache <= 0.5\ngini = 0.5\nsamples = 2\nvalue = [1, 1]"] ;
118 -> 119 ;
120 [label="gini = 0.0\nsamples = 1\nvalue = [0, 1]"] ;
119 -> 120 ;
121 [label="gini = 0.0\nsamples = 1\nvalue = [1, 0]"] ;
119 -> 121 ;
122 [label="hibernateCache <= 0.5\ngini = 0.5\nsamples = 2\nvalue = [1, 1]"] ;
118 -> 122 ;
123 [label="gini = 0.0\nsamples = 1\nvalue = [1, 0]"] ;
122 -> 123 ;
124 [label="gini = 0.0\nsamples = 1\nvalue = [0, 1]"] ;
122 -> 124 ;
125 [label="gini = 0.0\nsamples = 1\nvalue = [1, 0]"] ;
117 -> 125 ;
126 [label="hibernateCache <= 1.5\ngini = 0.444\nsamples = 6\nvalue = [2, 4]"] ;
116 -> 126 ;
127 [label="hibernateCache <= 0.5\ngini = 0.5\nsamples = 4\nvalue = [2, 2]"] ;
126 -> 127 ;
128 [label="websocket <= 0.5\ngini = 0.5\nsamples = 2\nvalue = [1, 1]"] ;
127 -> 128 ;
129 [label="gini = 0.0\nsamples = 1\nvalue = [0, 1]"] ;
128 -> 129 ;
130 [label="gini = 0.0\nsamples = 1\nvalue = [1, 0]"] ;
128 -> 130 ;
131 [label="websocket <= 0.5\ngini = 0.5\nsamples = 2\nvalue = [1, 1]"] ;
127 -> 131 ;
132 [label="gini = 0.0\nsamples = 1\nvalue = [1, 0]"] ;
131 -> 132 ;
133 [label="gini = 0.0\nsamples = 1\nvalue = [0, 1]"] ;
131 -> 133 ;
134 [label="gini = 0.0\nsamples = 2\nvalue = [0, 2]"] ;
126 -> 134 ;
135 [label="hibernateCache <= 0.5\ngini = 0.48\nsamples = 15\nvalue = [9, 6]"] ;
109 -> 135 ;
136 [label="websocket <= 0.5\ngini = 0.5\nsamples = 6\nvalue = [3, 3]"] ;
135 -> 136 ;
137 [label="devDatabaseType <= 0.5\ngini = 0.444\nsamples = 3\nvalue = [1, 2]"] ;
136 -> 137 ;
138 [label="gini = 0.0\nsamples = 1\nvalue = [0, 1]"] ;
137 -> 138 ;
139 [label="devDatabaseType <= 2.0\ngini = 0.5\nsamples = 2\nvalue = [1, 1]"] ;
137 -> 139 ;
140 [label="gini = 0.0\nsamples = 1\nvalue = [1, 0]"] ;
139 -> 140 ;
141 [label="gini = 0.0\nsamples = 1\nvalue = [0, 1]"] ;
139 -> 141 ;
142 [label="devDatabaseType <= 0.5\ngini = 0.444\nsamples = 3\nvalue = [2, 1]"] ;
136 -> 142 ;
143 [label="gini = 0.0\nsamples = 1\nvalue = [1, 0]"] ;
142 -> 143 ;
144 [label="devDatabaseType <= 2.0\ngini = 0.5\nsamples = 2\nvalue = [1, 1]"] ;
142 -> 144 ;
145 [label="gini = 0.0\nsamples = 1\nvalue = [0, 1]"] ;
144 -> 145 ;
146 [label="gini = 0.0\nsamples = 1\nvalue = [1, 0]"] ;
144 -> 146 ;
147 [label="websocket <= 0.5\ngini = 0.444\nsamples = 9\nvalue = [6, 3]"] ;
135 -> 147 ;
148 [label="hibernateCache <= 1.5\ngini = 0.32\nsamples = 5\nvalue = [4, 1]"] ;
147 -> 148 ;
149 [label="devDatabaseType <= 0.5\ngini = 0.5\nsamples = 2\nvalue = [1, 1]"] ;
148 -> 149 ;
150 [label="gini = 0.0\nsamples = 1\nvalue = [1, 0]"] ;
149 -> 150 ;
151 [label="gini = 0.0\nsamples = 1\nvalue = [0, 1]"] ;
149 -> 151 ;
152 [label="gini = 0.0\nsamples = 3\nvalue = [3, 0]"] ;
148 -> 152 ;
153 [label="hibernateCache <= 1.5\ngini = 0.5\nsamples = 4\nvalue = [2, 2]"] ;
147 -> 153 ;
154 [label="gini = 0.0\nsamples = 2\nvalue = [2, 0]"] ;
153 -> 154 ;
155 [label="gini = 0.0\nsamples = 2\nvalue = [0, 2]"] ;
153 -> 155 ;
156 [label="devDatabaseType <= 2.0\ngini = 0.48\nsamples = 65\nvalue = [26, 39]"] ;
82 -> 156 ;
157 [label="devDatabaseType <= 0.5\ngini = 0.439\nsamples = 43\nvalue = [14, 29]"] ;
156 -> 157 ;
158 [label="websocket <= 0.5\ngini = 0.483\nsamples = 22\nvalue = [9, 13]"] ;
157 -> 158 ;
159 [label="useSass <= 1.5\ngini = 0.5\nsamples = 12\nvalue = [6, 6]"] ;
158 -> 159 ;
160 [label="hibernateCache <= 0.5\ngini = 0.278\nsamples = 6\nvalue = [1, 5]"] ;
159 -> 160 ;
161 [label="enableTranslation <= 0.5\ngini = 0.5\nsamples = 2\nvalue = [1, 1]"] ;
160 -> 161 ;
162 [label="gini = 0.0\nsamples = 1\nvalue = [1, 0]"] ;
161 -> 162 ;
163 [label="gini = 0.0\nsamples = 1\nvalue = [0, 1]"] ;
161 -> 163 ;
164 [label="gini = 0.0\nsamples = 4\nvalue = [0, 4]"] ;
160 -> 164 ;
165 [label="enableTranslation <= 0.5\ngini = 0.278\nsamples = 6\nvalue = [5, 1]"] ;
159 -> 165 ;
166 [label="gini = 0.0\nsamples = 3\nvalue = [3, 0]"] ;
165 -> 166 ;
167 [label="hibernateCache <= 0.5\ngini = 0.444\nsamples = 3\nvalue = [2, 1]"] ;
165 -> 167 ;
168 [label="gini = 0.0\nsamples = 1\nvalue = [1, 0]"] ;
167 -> 168 ;
169 [label="hibernateCache <= 1.5\ngini = 0.5\nsamples = 2\nvalue = [1, 1]"] ;
167 -> 169 ;
170 [label="gini = 0.0\nsamples = 1\nvalue = [0, 1]"] ;
169 -> 170 ;
171 [label="gini = 0.0\nsamples = 1\nvalue = [1, 0]"] ;
169 -> 171 ;
172 [label="enableTranslation <= 0.5\ngini = 0.42\nsamples = 10\nvalue = [3, 7]"] ;
158 -> 172 ;
173 [label="gini = 0.0\nsamples = 5\nvalue = [0, 5]"] ;
172 -> 173 ;
174 [label="useSass <= 1.5\ngini = 0.48\nsamples = 5\nvalue = [3, 2]"] ;
172 -> 174 ;
175 [label="gini = 0.0\nsamples = 3\nvalue = [3, 0]"] ;
174 -> 175 ;
176 [label="gini = 0.0\nsamples = 2\nvalue = [0, 2]"] ;
174 -> 176 ;
177 [label="hibernateCache <= 1.5\ngini = 0.363\nsamples = 21\nvalue = [5, 16]"] ;
157 -> 177 ;
178 [label="websocket <= 0.5\ngini = 0.444\nsamples = 15\nvalue = [5, 10]"] ;
177 -> 178 ;
179 [label="enableTranslation <= 0.5\ngini = 0.375\nsamples = 8\nvalue = [2, 6]"] ;
178 -> 179 ;
180 [label="hibernateCache <= 0.5\ngini = 0.5\nsamples = 4\nvalue = [2, 2]"] ;
179 -> 180 ;
181 [label="useSass <= 1.5\ngini = 0.5\nsamples = 2\nvalue = [1, 1]"] ;
180 -> 181 ;
182 [label="gini = 0.0\nsamples = 1\nvalue = [1, 0]"] ;
181 -> 182 ;
183 [label="gini = 0.0\nsamples = 1\nvalue = [0, 1]"] ;
181 -> 183 ;
184 [label="useSass <= 1.5\ngini = 0.5\nsamples = 2\nvalue = [1, 1]"] ;
180 -> 184 ;
185 [label="gini = 0.0\nsamples = 1\nvalue = [0, 1]"] ;
184 -> 185 ;
186 [label="gini = 0.0\nsamples = 1\nvalue = [1, 0]"] ;
184 -> 186 ;
187 [label="gini = 0.0\nsamples = 4\nvalue = [0, 4]"] ;
179 -> 187 ;
188 [label="hibernateCache <= 0.5\ngini = 0.49\nsamples = 7\nvalue = [3, 4]"] ;
178 -> 188 ;
189 [label="enableTranslation <= 0.5\ngini = 0.375\nsamples = 4\nvalue = [1, 3]"] ;
188 -> 189 ;
190 [label="useSass <= 1.5\ngini = 0.5\nsamples = 2\nvalue = [1, 1]"] ;
189 -> 190 ;
191 [label="gini = 0.0\nsamples = 1\nvalue = [1, 0]"] ;
190 -> 191 ;
192 [label="gini = 0.0\nsamples = 1\nvalue = [0, 1]"] ;
190 -> 192 ;
193 [label="gini = 0.0\nsamples = 2\nvalue = [0, 2]"] ;
189 -> 193 ;
194 [label="enableTranslation <= 0.5\ngini = 0.444\nsamples = 3\nvalue = [2, 1]"] ;
188 -> 194 ;
195 [label="gini = 0.0\nsamples = 1\nvalue = [0, 1]"] ;
194 -> 195 ;
196 [label="gini = 0.0\nsamples = 2\nvalue = [2, 0]"] ;
194 -> 196 ;
197 [label="gini = 0.0\nsamples = 6\nvalue = [0, 6]"] ;
177 -> 197 ;
198 [label="enableTranslation <= 0.5\ngini = 0.496\nsamples = 22\nvalue = [12, 10]"] ;
156 -> 198 ;
199 [label="hibernateCache <= 0.5\ngini = 0.48\nsamples = 10\nvalue = [4, 6]"] ;
198 -> 199 ;
200 [label="gini = 0.0\nsamples = 4\nvalue = [0, 4]"] ;
199 -> 200 ;
201 [label="hibernateCache <= 1.5\ngini = 0.444\nsamples = 6\nvalue = [4, 2]"] ;
199 -> 201 ;
202 [label="gini = 0.0\nsamples = 3\nvalue = [3, 0]"] ;
201 -> 202 ;
203 [label="websocket <= 0.5\ngini = 0.444\nsamples = 3\nvalue = [1, 2]"] ;
201 -> 203 ;
204 [label="gini = 0.0\nsamples = 2\nvalue = [0, 2]"] ;
203 -> 204 ;
205 [label="gini = 0.0\nsamples = 1\nvalue = [1, 0]"] ;
203 -> 205 ;
206 [label="websocket <= 0.5\ngini = 0.444\nsamples = 12\nvalue = [8, 4]"] ;
198 -> 206 ;
207 [label="useSass <= 1.5\ngini = 0.278\nsamples = 6\nvalue = [5, 1]"] ;
206 -> 207 ;
208 [label="hibernateCache <= 0.5\ngini = 0.444\nsamples = 3\nvalue = [2, 1]"] ;
207 -> 208 ;
209 [label="gini = 0.0\nsamples = 1\nvalue = [1, 0]"] ;
208 -> 209 ;
210 [label="hibernateCache <= 1.5\ngini = 0.5\nsamples = 2\nvalue = [1, 1]"] ;
208 -> 210 ;
211 [label="gini = 0.0\nsamples = 1\nvalue = [0, 1]"] ;
210 -> 211 ;
212 [label="gini = 0.0\nsamples = 1\nvalue = [1, 0]"] ;
210 -> 212 ;
213 [label="gini = 0.0\nsamples = 3\nvalue = [3, 0]"] ;
207 -> 213 ;
214 [label="hibernateCache <= 1.5\ngini = 0.5\nsamples = 6\nvalue = [3, 3]"] ;
206 -> 214 ;
215 [label="hibernateCache <= 0.5\ngini = 0.375\nsamples = 4\nvalue = [3, 1]"] ;
214 -> 215 ;
216 [label="useSass <= 1.5\ngini = 0.5\nsamples = 2\nvalue = [1, 1]"] ;
215 -> 216 ;
217 [label="gini = 0.0\nsamples = 1\nvalue = [1, 0]"] ;
216 -> 217 ;
218 [label="gini = 0.0\nsamples = 1\nvalue = [0, 1]"] ;
216 -> 218 ;
219 [label="gini = 0.0\nsamples = 2\nvalue = [2, 0]"] ;
215 -> 219 ;
220 [label="gini = 0.0\nsamples = 2\nvalue = [0, 2]"] ;
214 -> 220 ;
221 [label="useSass <= 1.5\ngini = 0.044\nsamples = 264\nvalue = [6, 258]"] ;
81 -> 221 ;
222 [label="devDatabaseType <= 0.5\ngini = 0.087\nsamples = 131\nvalue = [6, 125]"] ;
221 -> 222 ;
223 [label="gini = 0.0\nsamples = 43\nvalue = [0, 43]"] ;
222 -> 223 ;
224 [label="enableTranslation <= 0.5\ngini = 0.127\nsamples = 88\nvalue = [6, 82]"] ;
222 -> 224 ;
225 [label="hibernateCache <= 1.5\ngini = 0.081\nsamples = 47\nvalue = [2, 45]"] ;
224 -> 225 ;
226 [label="gini = 0.0\nsamples = 31\nvalue = [0, 31]"] ;
225 -> 226 ;
227 [label="clusteredHttpSession <= 0.5\ngini = 0.219\nsamples = 16\nvalue = [2, 14]"] ;
225 -> 227 ;
228 [label="gini = 0.0\nsamples = 8\nvalue = [0, 8]"] ;
227 -> 228 ;
229 [label="enableSocialSignIn <= 1.5\ngini = 0.375\nsamples = 8\nvalue = [2, 6]"] ;
227 -> 229 ;
230 [label="websocket <= 0.5\ngini = 0.375\nsamples = 4\nvalue = [1, 3]"] ;
229 -> 230 ;
231 [label="gini = 0.0\nsamples = 2\nvalue = [0, 2]"] ;
230 -> 231 ;
232 [label="devDatabaseType <= 2.0\ngini = 0.5\nsamples = 2\nvalue = [1, 1]"] ;
230 -> 232 ;
233 [label="gini = 0.0\nsamples = 1\nvalue = [1, 0]"] ;
232 -> 233 ;
234 [label="gini = 0.0\nsamples = 1\nvalue = [0, 1]"] ;
232 -> 234 ;
235 [label="websocket <= 0.5\ngini = 0.375\nsamples = 4\nvalue = [1, 3]"] ;
229 -> 235 ;
236 [label="devDatabaseType <= 2.0\ngini = 0.5\nsamples = 2\nvalue = [1, 1]"] ;
235 -> 236 ;
237 [label="gini = 0.0\nsamples = 1\nvalue = [0, 1]"] ;
236 -> 237 ;
238 [label="gini = 0.0\nsamples = 1\nvalue = [1, 0]"] ;
236 -> 238 ;
239 [label="gini = 0.0\nsamples = 2\nvalue = [0, 2]"] ;
235 -> 239 ;
240 [label="clusteredHttpSession <= 0.5\ngini = 0.176\nsamples = 41\nvalue = [4, 37]"] ;
224 -> 240 ;
241 [label="websocket <= 0.5\ngini = 0.266\nsamples = 19\nvalue = [3, 16]"] ;
240 -> 241 ;
242 [label="gini = 0.0\nsamples = 8\nvalue = [0, 8]"] ;
241 -> 242 ;
243 [label="devDatabaseType <= 2.0\ngini = 0.397\nsamples = 11\nvalue = [3, 8]"] ;
241 -> 243 ;
244 [label="hibernateCache <= 1.5\ngini = 0.278\nsamples = 6\nvalue = [1, 5]"] ;
243 -> 244 ;
245 [label="gini = 0.0\nsamples = 4\nvalue = [0, 4]"] ;
244 -> 245 ;
246 [label="enableSocialSignIn <= 1.5\ngini = 0.5\nsamples = 2\nvalue = [1, 1]"] ;
244 -> 246 ;
247 [label="gini = 0.0\nsamples = 1\nvalue = [1, 0]"] ;
246 -> 247 ;
248 [label="gini = 0.0\nsamples = 1\nvalue = [0, 1]"] ;
246 -> 248 ;
249 [label="hibernateCache <= 1.5\ngini = 0.48\nsamples = 5\nvalue = [2, 3]"] ;
243 -> 249 ;
250 [label="hibernateCache <= 0.5\ngini = 0.444\nsamples = 3\nvalue = [2, 1]"] ;
249 -> 250 ;
251 [label="gini = 0.0\nsamples = 1\nvalue = [1, 0]"] ;
250 -> 251 ;
252 [label="enableSocialSignIn <= 1.5\ngini = 0.5\nsamples = 2\nvalue = [1, 1]"] ;
250 -> 252 ;
253 [label="gini = 0.0\nsamples = 1\nvalue = [1, 0]"] ;
252 -> 253 ;
254 [label="gini = 0.0\nsamples = 1\nvalue = [0, 1]"] ;
252 -> 254 ;
255 [label="gini = 0.0\nsamples = 2\nvalue = [0, 2]"] ;
249 -> 255 ;
256 [label="hibernateCache <= 0.5\ngini = 0.087\nsamples = 22\nvalue = [1, 21]"] ;
240 -> 256 ;
257 [label="websocket <= 0.5\ngini = 0.219\nsamples = 8\nvalue = [1, 7]"] ;
256 -> 257 ;
258 [label="enableSocialSignIn <= 1.5\ngini = 0.375\nsamples = 4\nvalue = [1, 3]"] ;
257 -> 258 ;
259 [label="devDatabaseType <= 2.0\ngini = 0.5\nsamples = 2\nvalue = [1, 1]"] ;
258 -> 259 ;
260 [label="gini = 0.0\nsamples = 1\nvalue = [1, 0]"] ;
259 -> 260 ;
261 [label="gini = 0.0\nsamples = 1\nvalue = [0, 1]"] ;
259 -> 261 ;
262 [label="gini = 0.0\nsamples = 2\nvalue = [0, 2]"] ;
258 -> 262 ;
263 [label="gini = 0.0\nsamples = 4\nvalue = [0, 4]"] ;
257 -> 263 ;
264 [label="gini = 0.0\nsamples = 14\nvalue = [0, 14]"] ;
256 -> 264 ;
265 [label="gini = 0.0\nsamples = 133\nvalue = [0, 133]"] ;
221 -> 265 ;
266 [label="applicationType <= 1.5\ngini = 0.337\nsamples = 931\nvalue = [731, 200]"] ;
46 -> 266 ;
267 [label="databaseType <= 0.5\ngini = 0.173\nsamples = 178\nvalue = [17, 161]"] ;
266 -> 267 ;
268 [label="gini = 0.0\nsamples = 17\nvalue = [17, 0]"] ;
267 -> 268 ;
269 [label="gini = 0.0\nsamples = 161\nvalue = [0, 161]"] ;
267 -> 269 ;
270 [label="devDatabaseType <= 3.5\ngini = 0.098\nsamples = 753\nvalue = [714, 39]"] ;
266 -> 270 ;
271 [label="gini = 0.0\nsamples = 683\nvalue = [683, 0]"] ;
270 -> 271 ;
272 [label="enableSocialSignIn <= 1.5\ngini = 0.493\nsamples = 70\nvalue = [31, 39]"] ;
270 -> 272 ;
273 [label="gini = 0.0\nsamples = 39\nvalue = [0, 39]"] ;
272 -> 273 ;
274 [label="gini = 0.0\nsamples = 31\nvalue = [31, 0]"] ;
272 -> 274 ;
275 [label="Docker <= 0.5\ngini = 0.093\nsamples = 12703\nvalue = [621, 12082]"] ;
1 -> 275 ;
276 [label="buildTool <= 0.5\ngini = 0.008\nsamples = 6372\nvalue = [24, 6348]"] ;
275 -> 276 ;
277 [label="prodDatabaseType <= 3.5\ngini = 0.015\nsamples = 3196\nvalue = [24, 3172]"] ;
276 -> 277 ;
278 [label="enableSocialSignIn <= 1.5\ngini = 0.022\nsamples = 1595\nvalue = [18, 1577]"] ;
277 -> 278 ;
279 [label="searchEngine <= 0.5\ngini = 0.018\nsamples = 1074\nvalue = [10, 1064]"] ;
278 -> 279 ;
280 [label="websocket <= 0.5\ngini = 0.029\nsamples = 542\nvalue = [8, 534]"] ;
279 -> 280 ;
281 [label="hibernateCache <= 1.5\ngini = 0.022\nsamples = 264\nvalue = [3, 261]"] ;
280 -> 281 ;
282 [label="devDatabaseType <= 3.0\ngini = 0.034\nsamples = 174\nvalue = [3, 171]"] ;
281 -> 282 ;
283 [label="devDatabaseType <= 0.5\ngini = 0.017\nsamples = 116\nvalue = [1, 115]"] ;
282 -> 283 ;
284 [label="authenticationType <= 0.5\ngini = 0.035\nsamples = 56\nvalue = [1, 55]"] ;
283 -> 284 ;
285 [label="applicationType <= 1.0\ngini = 0.069\nsamples = 28\nvalue = [1, 27]"] ;
284 -> 285 ;
286 [label="gini = 0.0\nsamples = 15\nvalue = [0, 15]"] ;
285 -> 286 ;
287 [label="clusteredHttpSession <= 0.5\ngini = 0.142\nsamples = 13\nvalue = [1, 12]"] ;
285 -> 287 ;
288 [label="gini = 0.0\nsamples = 7\nvalue = [0, 7]"] ;
287 -> 288 ;
289 [label="useSass <= 1.5\ngini = 0.278\nsamples = 6\nvalue = [1, 5]"] ;
287 -> 289 ;
290 [label="hibernateCache <= 0.5\ngini = 0.444\nsamples = 3\nvalue = [1, 2]"] ;
289 -> 290 ;
291 [label="enableTranslation <= 0.5\ngini = 0.5\nsamples = 2\nvalue = [1, 1]"] ;
290 -> 291 ;
292 [label="gini = 0.0\nsamples = 1\nvalue = [1, 0]"] ;
291 -> 292 ;
293 [label="gini = 0.0\nsamples = 1\nvalue = [0, 1]"] ;
291 -> 293 ;
294 [label="gini = 0.0\nsamples = 1\nvalue = [0, 1]"] ;
290 -> 294 ;
295 [label="gini = 0.0\nsamples = 3\nvalue = [0, 3]"] ;
289 -> 295 ;
296 [label="gini = 0.0\nsamples = 28\nvalue = [0, 28]"] ;
284 -> 296 ;
297 [label="gini = 0.0\nsamples = 60\nvalue = [0, 60]"] ;
283 -> 297 ;
298 [label="clusteredHttpSession <= 0.5\ngini = 0.067\nsamples = 58\nvalue = [2, 56]"] ;
282 -> 298 ;
299 [label="authenticationType <= 1.5\ngini = 0.124\nsamples = 30\nvalue = [2, 28]"] ;
298 -> 299 ;
300 [label="applicationType <= 1.0\ngini = 0.165\nsamples = 22\nvalue = [2, 20]"] ;
299 -> 300 ;
301 [label="hibernateCache <= 0.5\ngini = 0.219\nsamples = 8\nvalue = [1, 7]"] ;
300 -> 301 ;
302 [label="gini = 0.0\nsamples = 4\nvalue = [0, 4]"] ;
301 -> 302 ;
303 [label="enableTranslation <= 0.5\ngini = 0.375\nsamples = 4\nvalue = [1, 3]"] ;
301 -> 303 ;
304 [label="useSass <= 1.5\ngini = 0.5\nsamples = 2\nvalue = [1, 1]"] ;
303 -> 304 ;
305 [label="gini = 0.0\nsamples = 1\nvalue = [0, 1]"] ;
304 -> 305 ;
306 [label="gini = 0.0\nsamples = 1\nvalue = [1, 0]"] ;
304 -> 306 ;
307 [label="gini = 0.0\nsamples = 2\nvalue = [0, 2]"] ;
303 -> 307 ;
308 [label="hibernateCache <= 0.5\ngini = 0.133\nsamples = 14\nvalue = [1, 13]"] ;
300 -> 308 ;
309 [label="authenticationType <= 0.5\ngini = 0.245\nsamples = 7\nvalue = [1, 6]"] ;
308 -> 309 ;
310 [label="gini = 0.0\nsamples = 3\nvalue = [0, 3]"] ;
309 -> 310 ;
311 [label="enableTranslation <= 0.5\ngini = 0.375\nsamples = 4\nvalue = [1, 3]"] ;
309 -> 311 ;
312 [label="gini = 0.0\nsamples = 2\nvalue = [0, 2]"] ;
311 -> 312 ;
313 [label="useSass <= 1.5\ngini = 0.5\nsamples = 2\nvalue = [1, 1]"] ;
311 -> 313 ;
314 [label="gini = 0.0\nsamples = 1\nvalue = [1, 0]"] ;
313 -> 314 ;
315 [label="gini = 0.0\nsamples = 1\nvalue = [0, 1]"] ;
313 -> 315 ;
316 [label="gini = 0.0\nsamples = 7\nvalue = [0, 7]"] ;
308 -> 316 ;
317 [label="gini = 0.0\nsamples = 8\nvalue = [0, 8]"] ;
299 -> 317 ;
318 [label="gini = 0.0\nsamples = 28\nvalue = [0, 28]"] ;
298 -> 318 ;
319 [label="gini = 0.0\nsamples = 90\nvalue = [0, 90]"] ;
281 -> 319 ;
320 [label="hibernateCache <= 0.5\ngini = 0.035\nsamples = 278\nvalue = [5, 273]"] ;
280 -> 320 ;
321 [label="gini = 0.0\nsamples = 95\nvalue = [0, 95]"] ;
320 -> 321 ;
322 [label="authenticationType <= 1.5\ngini = 0.053\nsamples = 183\nvalue = [5, 178]"] ;
320 -> 322 ;
323 [label="useSass <= 1.5\ngini = 0.042\nsamples = 141\nvalue = [3, 138]"] ;
322 -> 323 ;
324 [label="clusteredHttpSession <= 0.5\ngini = 0.077\nsamples = 75\nvalue = [3, 72]"] ;
323 -> 324 ;
325 [label="gini = 0.0\nsamples = 32\nvalue = [0, 32]"] ;
324 -> 325 ;
326 [label="devDatabaseType <= 3.0\ngini = 0.13\nsamples = 43\nvalue = [3, 40]"] ;
324 -> 326 ;
327 [label="useSass <= 0.5\ngini = 0.175\nsamples = 31\nvalue = [3, 28]"] ;
326 -> 327 ;
328 [label="gini = 0.0\nsamples = 7\nvalue = [0, 7]"] ;
327 -> 328 ;
329 [label="hibernateCache <= 1.5\ngini = 0.219\nsamples = 24\nvalue = [3, 21]"] ;
327 -> 329 ;
330 [label="applicationType <= 1.0\ngini = 0.278\nsamples = 12\nvalue = [2, 10]"] ;
329 -> 330 ;
331 [label="gini = 0.0\nsamples = 4\nvalue = [0, 4]"] ;
330 -> 331 ;
332 [label="authenticationType <= 0.5\ngini = 0.375\nsamples = 8\nvalue = [2, 6]"] ;
330 -> 332 ;
333 [label="enableTranslation <= 0.5\ngini = 0.375\nsamples = 4\nvalue = [1, 3]"] ;
332 -> 333 ;
334 [label="devDatabaseType <= 0.5\ngini = 0.5\nsamples = 2\nvalue = [1, 1]"] ;
333 -> 334 ;
335 [label="gini = 0.0\nsamples = 1\nvalue = [0, 1]"] ;
334 -> 335 ;
336 [label="gini = 0.0\nsamples = 1\nvalue = [1, 0]"] ;
334 -> 336 ;
337 [label="gini = 0.0\nsamples = 2\nvalue = [0, 2]"] ;
333 -> 337 ;
338 [label="devDatabaseType <= 0.5\ngini = 0.375\nsamples = 4\nvalue = [1, 3]"] ;
332 -> 338 ;
339 [label="enableTranslation <= 0.5\ngini = 0.5\nsamples = 2\nvalue = [1, 1]"] ;
338 -> 339 ;
340 [label="gini = 0.0\nsamples = 1\nvalue = [0, 1]"] ;
339 -> 340 ;
341 [label="gini = 0.0\nsamples = 1\nvalue = [1, 0]"] ;
339 -> 341 ;
342 [label="gini = 0.0\nsamples = 2\nvalue = [0, 2]"] ;
338 -> 342 ;
343 [label="applicationType <= 1.0\ngini = 0.153\nsamples = 12\nvalue = [1, 11]"] ;
329 -> 343 ;
344 [label="enableTranslation <= 0.5\ngini = 0.375\nsamples = 4\nvalue = [1, 3]"] ;
343 -> 344 ;
345 [label="gini = 0.0\nsamples = 2\nvalue = [0, 2]"] ;
344 -> 345 ;
346 [label="devDatabaseType <= 0.5\ngini = 0.5\nsamples = 2\nvalue = [1, 1]"] ;
344 -> 346 ;
347 [label="gini = 0.0\nsamples = 1\nvalue = [0, 1]"] ;
346 -> 347 ;
348 [label="gini = 0.0\nsamples = 1\nvalue = [1, 0]"] ;
346 -> 348 ;
349 [label="gini = 0.0\nsamples = 8\nvalue = [0, 8]"] ;
343 -> 349 ;
350 [label="gini = 0.0\nsamples = 12\nvalue = [0, 12]"] ;
326 -> 350 ;
351 [label="gini = 0.0\nsamples = 66\nvalue = [0, 66]"] ;
323 -> 351 ;
352 [label="useSass <= 1.5\ngini = 0.091\nsamples = 42\nvalue = [2, 40]"] ;
322 -> 352 ;
353 [label="gini = 0.0\nsamples = 21\nvalue = [0, 21]"] ;
352 -> 353 ;
354 [label="clusteredHttpSession <= 0.5\ngini = 0.172\nsamples = 21\nvalue = [2, 19]"] ;
352 -> 354 ;
355 [label="devDatabaseType <= 0.5\ngini = 0.32\nsamples = 10\nvalue = [2, 8]"] ;
354 -> 355 ;
356 [label="gini = 0.0\nsamples = 3\nvalue = [0, 3]"] ;
355 -> 356 ;
357 [label="devDatabaseType <= 3.0\ngini = 0.408\nsamples = 7\nvalue = [2, 5]"] ;
355 -> 357 ;
358 [label="hibernateCache <= 1.5\ngini = 0.444\nsamples = 3\nvalue = [1, 2]"] ;
357 -> 358 ;
359 [label="gini = 0.0\nsamples = 1\nvalue = [1, 0]"] ;
358 -> 359 ;
360 [label="gini = 0.0\nsamples = 2\nvalue = [0, 2]"] ;
358 -> 360 ;
361 [label="hibernateCache <= 1.5\ngini = 0.375\nsamples = 4\nvalue = [1, 3]"] ;
357 -> 361 ;
362 [label="gini = 0.0\nsamples = 2\nvalue = [0, 2]"] ;
361 -> 362 ;
363 [label="enableTranslation <= 0.5\ngini = 0.5\nsamples = 2\nvalue = [1, 1]"] ;
361 -> 363 ;
364 [label="gini = 0.0\nsamples = 1\nvalue = [0, 1]"] ;
363 -> 364 ;
365 [label="gini = 0.0\nsamples = 1\nvalue = [1, 0]"] ;
363 -> 365 ;
366 [label="gini = 0.0\nsamples = 11\nvalue = [0, 11]"] ;
354 -> 366 ;
367 [label="authenticationType <= 0.5\ngini = 0.007\nsamples = 532\nvalue = [2, 530]"] ;
279 -> 367 ;
368 [label="gini = 0.0\nsamples = 281\nvalue = [0, 281]"] ;
367 -> 368 ;
369 [label="clusteredHttpSession <= 0.5\ngini = 0.016\nsamples = 251\nvalue = [2, 249]"] ;
367 -> 369 ;
370 [label="useSass <= 1.5\ngini = 0.032\nsamples = 122\nvalue = [2, 120]"] ;
369 -> 370 ;
371 [label="gini = 0.0\nsamples = 60\nvalue = [0, 60]"] ;
370 -> 371 ;
372 [label="enableTranslation <= 0.5\ngini = 0.062\nsamples = 62\nvalue = [2, 60]"] ;
370 -> 372 ;
373 [label="hibernateCache <= 0.5\ngini = 0.117\nsamples = 32\nvalue = [2, 30]"] ;
372 -> 373 ;
374 [label="gini = 0.0\nsamples = 11\nvalue = [0, 11]"] ;
373 -> 374 ;
375 [label="hibernateCache <= 1.5\ngini = 0.172\nsamples = 21\nvalue = [2, 19]"] ;
373 -> 375 ;
376 [label="devDatabaseType <= 0.5\ngini = 0.298\nsamples = 11\nvalue = [2, 9]"] ;
375 -> 376 ;
377 [label="websocket <= 0.5\ngini = 0.444\nsamples = 3\nvalue = [1, 2]"] ;
376 -> 377 ;
378 [label="gini = 0.0\nsamples = 1\nvalue = [1, 0]"] ;
377 -> 378 ;
379 [label="gini = 0.0\nsamples = 2\nvalue = [0, 2]"] ;
377 -> 379 ;
380 [label="authenticationType <= 1.5\ngini = 0.219\nsamples = 8\nvalue = [1, 7]"] ;
376 -> 380 ;
381 [label="devDatabaseType <= 3.0\ngini = 0.375\nsamples = 4\nvalue = [1, 3]"] ;
380 -> 381 ;
382 [label="gini = 0.0\nsamples = 2\nvalue = [0, 2]"] ;
381 -> 382 ;
383 [label="websocket <= 0.5\ngini = 0.5\nsamples = 2\nvalue = [1, 1]"] ;
381 -> 383 ;
384 [label="gini = 0.0\nsamples = 1\nvalue = [0, 1]"] ;
383 -> 384 ;
385 [label="gini = 0.0\nsamples = 1\nvalue = [1, 0]"] ;
383 -> 385 ;
386 [label="gini = 0.0\nsamples = 4\nvalue = [0, 4]"] ;
380 -> 386 ;
387 [label="gini = 0.0\nsamples = 10\nvalue = [0, 10]"] ;
375 -> 387 ;
388 [label="gini = 0.0\nsamples = 30\nvalue = [0, 30]"] ;
372 -> 388 ;
389 [label="gini = 0.0\nsamples = 129\nvalue = [0, 129]"] ;
369 -> 389 ;
390 [label="hibernateCache <= 0.5\ngini = 0.03\nsamples = 521\nvalue = [8, 513]"] ;
278 -> 390 ;
391 [label="enableTranslation <= 0.5\ngini = 0.056\nsamples = 173\nvalue = [5, 168]"] ;
390 -> 391 ;
392 [label="devDatabaseType <= 3.0\ngini = 0.022\nsamples = 88\nvalue = [1, 87]"] ;
391 -> 392 ;
393 [label="gini = 0.0\nsamples = 59\nvalue = [0, 59]"] ;
392 -> 393 ;
394 [label="authenticationType <= 1.0\ngini = 0.067\nsamples = 29\nvalue = [1, 28]"] ;
392 -> 394 ;
395 [label="useSass <= 1.5\ngini = 0.133\nsamples = 14\nvalue = [1, 13]"] ;
394 -> 395 ;
396 [label="gini = 0.0\nsamples = 7\nvalue = [0, 7]"] ;
395 -> 396 ;
397 [label="clusteredHttpSession <= 0.5\ngini = 0.245\nsamples = 7\nvalue = [1, 6]"] ;
395 -> 397 ;
398 [label="searchEngine <= 0.5\ngini = 0.375\nsamples = 4\nvalue = [1, 3]"] ;
397 -> 398 ;
399 [label="gini = 0.0\nsamples = 2\nvalue = [0, 2]"] ;
398 -> 399 ;
400 [label="websocket <= 0.5\ngini = 0.5\nsamples = 2\nvalue = [1, 1]"] ;
398 -> 400 ;
401 [label="gini = 0.0\nsamples = 1\nvalue = [0, 1]"] ;
400 -> 401 ;
402 [label="gini = 0.0\nsamples = 1\nvalue = [1, 0]"] ;
400 -> 402 ;
403 [label="gini = 0.0\nsamples = 3\nvalue = [0, 3]"] ;
397 -> 403 ;
404 [label="gini = 0.0\nsamples = 15\nvalue = [0, 15]"] ;
394 -> 404 ;
405 [label="authenticationType <= 1.0\ngini = 0.09\nsamples = 85\nvalue = [4, 81]"] ;
391 -> 405 ;
406 [label="devDatabaseType <= 0.5\ngini = 0.127\nsamples = 44\nvalue = [3, 41]"] ;
405 -> 406 ;
407 [label="gini = 0.0\nsamples = 15\nvalue = [0, 15]"] ;
406 -> 407 ;
408 [label="searchEngine <= 0.5\ngini = 0.185\nsamples = 29\nvalue = [3, 26]"] ;
406 -> 408 ;
409 [label="websocket <= 0.5\ngini = 0.124\nsamples = 15\nvalue = [1, 14]"] ;
408 -> 409 ;
410 [label="gini = 0.0\nsamples = 7\nvalue = [0, 7]"] ;
409 -> 410 ;
411 [label="clusteredHttpSession <= 0.5\ngini = 0.219\nsamples = 8\nvalue = [1, 7]"] ;
409 -> 411 ;
412 [label="useSass <= 1.5\ngini = 0.375\nsamples = 4\nvalue = [1, 3]"] ;
411 -> 412 ;
413 [label="devDatabaseType <= 3.0\ngini = 0.5\nsamples = 2\nvalue = [1, 1]"] ;
412 -> 413 ;
414 [label="gini = 0.0\nsamples = 1\nvalue = [0, 1]"] ;
413 -> 414 ;
415 [label="gini = 0.0\nsamples = 1\nvalue = [1, 0]"] ;
413 -> 415 ;
416 [label="gini = 0.0\nsamples = 2\nvalue = [0, 2]"] ;
412 -> 416 ;
417 [label="gini = 0.0\nsamples = 4\nvalue = [0, 4]"] ;
411 -> 417 ;
418 [label="websocket <= 0.5\ngini = 0.245\nsamples = 14\nvalue = [2, 12]"] ;
408 -> 418 ;
419 [label="useSass <= 1.5\ngini = 0.375\nsamples = 8\nvalue = [2, 6]"] ;
418 -> 419 ;
420 [label="clusteredHttpSession <= 0.5\ngini = 0.375\nsamples = 4\nvalue = [1, 3]"] ;
419 -> 420 ;
421 [label="gini = 0.0\nsamples = 2\nvalue = [0, 2]"] ;
420 -> 421 ;
422 [label="devDatabaseType <= 3.0\ngini = 0.5\nsamples = 2\nvalue = [1, 1]"] ;
420 -> 422 ;
423 [label="gini = 0.0\nsamples = 1\nvalue = [0, 1]"] ;
422 -> 423 ;
424 [label="gini = 0.0\nsamples = 1\nvalue = [1, 0]"] ;
422 -> 424 ;
425 [label="clusteredHttpSession <= 0.5\ngini = 0.375\nsamples = 4\nvalue = [1, 3]"] ;
419 -> 425 ;
426 [label="devDatabaseType <= 3.0\ngini = 0.5\nsamples = 2\nvalue = [1, 1]"] ;
425 -> 426 ;
427 [label="gini = 0.0\nsamples = 1\nvalue = [1, 0]"] ;
426 -> 427 ;
428 [label="gini = 0.0\nsamples = 1\nvalue = [0, 1]"] ;
426 -> 428 ;
429 [label="gini = 0.0\nsamples = 2\nvalue = [0, 2]"] ;
425 -> 429 ;
430 [label="gini = 0.0\nsamples = 6\nvalue = [0, 6]"] ;
418 -> 430 ;
431 [label="devDatabaseType <= 0.5\ngini = 0.048\nsamples = 41\nvalue = [1, 40]"] ;
405 -> 431 ;
432 [label="websocket <= 0.5\ngini = 0.133\nsamples = 14\nvalue = [1, 13]"] ;
431 -> 432 ;
433 [label="gini = 0.0\nsamples = 7\nvalue = [0, 7]"] ;
432 -> 433 ;
434 [label="useSass <= 1.5\ngini = 0.245\nsamples = 7\nvalue = [1, 6]"] ;
432 -> 434 ;
435 [label="gini = 0.0\nsamples = 3\nvalue = [0, 3]"] ;
434 -> 435 ;
436 [label="searchEngine <= 0.5\ngini = 0.375\nsamples = 4\nvalue = [1, 3]"] ;
434 -> 436 ;
437 [label="clusteredHttpSession <= 0.5\ngini = 0.5\nsamples = 2\nvalue = [1, 1]"] ;
436 -> 437 ;
438 [label="gini = 0.0\nsamples = 1\nvalue = [0, 1]"] ;
437 -> 438 ;
439 [label="gini = 0.0\nsamples = 1\nvalue = [1, 0]"] ;
437 -> 439 ;
440 [label="gini = 0.0\nsamples = 2\nvalue = [0, 2]"] ;
436 -> 440 ;
441 [label="gini = 0.0\nsamples = 27\nvalue = [0, 27]"] ;
431 -> 441 ;
442 [label="hibernateCache <= 1.5\ngini = 0.017\nsamples = 348\nvalue = [3, 345]"] ;
390 -> 442 ;
443 [label="gini = 0.0\nsamples = 173\nvalue = [0, 173]"] ;
442 -> 443 ;
444 [label="devDatabaseType <= 3.0\ngini = 0.034\nsamples = 175\nvalue = [3, 172]"] ;
442 -> 444 ;
445 [label="clusteredHttpSession <= 0.5\ngini = 0.052\nsamples = 113\nvalue = [3, 110]"] ;
444 -> 445 ;
446 [label="websocket <= 0.5\ngini = 0.069\nsamples = 56\nvalue = [2, 54]"] ;
445 -> 446 ;
447 [label="gini = 0.0\nsamples = 27\nvalue = [0, 27]"] ;
446 -> 447 ;
448 [label="authenticationType <= 1.0\ngini = 0.128\nsamples = 29\nvalue = [2, 27]"] ;
446 -> 448 ;
449 [label="devDatabaseType <= 0.5\ngini = 0.117\nsamples = 16\nvalue = [1, 15]"] ;
448 -> 449 ;
450 [label="gini = 0.0\nsamples = 8\nvalue = [0, 8]"] ;
449 -> 450 ;
451 [label="searchEngine <= 0.5\ngini = 0.219\nsamples = 8\nvalue = [1, 7]"] ;
449 -> 451 ;
452 [label="useSass <= 1.5\ngini = 0.375\nsamples = 4\nvalue = [1, 3]"] ;
451 -> 452 ;
453 [label="enableTranslation <= 0.5\ngini = 0.5\nsamples = 2\nvalue = [1, 1]"] ;
452 -> 453 ;
454 [label="gini = 0.0\nsamples = 1\nvalue = [1, 0]"] ;
453 -> 454 ;
455 [label="gini = 0.0\nsamples = 1\nvalue = [0, 1]"] ;
453 -> 455 ;
456 [label="gini = 0.0\nsamples = 2\nvalue = [0, 2]"] ;
452 -> 456 ;
457 [label="gini = 0.0\nsamples = 4\nvalue = [0, 4]"] ;
451 -> 457 ;
458 [label="useSass <= 1.5\ngini = 0.142\nsamples = 13\nvalue = [1, 12]"] ;
448 -> 458 ;
459 [label="gini = 0.0\nsamples = 7\nvalue = [0, 7]"] ;
458 -> 459 ;
460 [label="searchEngine <= 0.5\ngini = 0.278\nsamples = 6\nvalue = [1, 5]"] ;
458 -> 460 ;
461 [label="gini = 0.0\nsamples = 3\nvalue = [0, 3]"] ;
460 -> 461 ;
462 [label="enableTranslation <= 0.5\ngini = 0.444\nsamples = 3\nvalue = [1, 2]"] ;
460 -> 462 ;
463 [label="gini = 0.0\nsamples = 2\nvalue = [0, 2]"] ;
462 -> 463 ;
464 [label="gini = 0.0\nsamples = 1\nvalue = [1, 0]"] ;
462 -> 464 ;
465 [label="websocket <= 0.5\ngini = 0.034\nsamples = 57\nvalue = [1, 56]"] ;
445 -> 465 ;
466 [label="enableTranslation <= 0.5\ngini = 0.074\nsamples = 26\nvalue = [1, 25]"] ;
465 -> 466 ;
467 [label="searchEngine <= 0.5\ngini = 0.153\nsamples = 12\nvalue = [1, 11]"] ;
466 -> 467 ;
468 [label="gini = 0.0\nsamples = 6\nvalue = [0, 6]"] ;
467 -> 468 ;
469 [label="devDatabaseType <= 0.5\ngini = 0.278\nsamples = 6\nvalue = [1, 5]"] ;
467 -> 469 ;
470 [label="gini = 0.0\nsamples = 3\nvalue = [0, 3]"] ;
469 -> 470 ;
471 [label="authenticationType <= 1.0\ngini = 0.444\nsamples = 3\nvalue = [1, 2]"] ;
469 -> 471 ;
472 [label="gini = 0.0\nsamples = 1\nvalue = [0, 1]"] ;
471 -> 472 ;
473 [label="useSass <= 1.5\ngini = 0.5\nsamples = 2\nvalue = [1, 1]"] ;
471 -> 473 ;
474 [label="gini = 0.0\nsamples = 1\nvalue = [1, 0]"] ;
473 -> 474 ;
475 [label="gini = 0.0\nsamples = 1\nvalue = [0, 1]"] ;
473 -> 475 ;
476 [label="gini = 0.0\nsamples = 14\nvalue = [0, 14]"] ;
466 -> 476 ;
477 [label="gini = 0.0\nsamples = 31\nvalue = [0, 31]"] ;
465 -> 477 ;
478 [label="gini = 0.0\nsamples = 62\nvalue = [0, 62]"] ;
444 -> 478 ;
479 [label="authenticationType <= 0.5\ngini = 0.007\nsamples = 1601\nvalue = [6, 1595]"] ;
277 -> 479 ;
480 [label="applicationType <= 0.5\ngini = 0.002\nsamples = 811\nvalue = [1, 810]"] ;
479 -> 480 ;
481 [label="devDatabaseType <= 0.5\ngini = 0.008\nsamples = 259\nvalue = [1, 258]"] ;
480 -> 481 ;
482 [label="hibernateCache <= 1.5\ngini = 0.024\nsamples = 84\nvalue = [1, 83]"] ;
481 -> 482 ;
483 [label="gini = 0.0\nsamples = 55\nvalue = [0, 55]"] ;
482 -> 483 ;
484 [label="clusteredHttpSession <= 0.5\ngini = 0.067\nsamples = 29\nvalue = [1, 28]"] ;
482 -> 484 ;
485 [label="gini = 0.0\nsamples = 16\nvalue = [0, 16]"] ;
484 -> 485 ;
486 [label="useSass <= 1.5\ngini = 0.142\nsamples = 13\nvalue = [1, 12]"] ;
484 -> 486 ;
487 [label="gini = 0.0\nsamples = 7\nvalue = [0, 7]"] ;
486 -> 487 ;
488 [label="enableTranslation <= 0.5\ngini = 0.278\nsamples = 6\nvalue = [1, 5]"] ;
486 -> 488 ;
489 [label="gini = 0.0\nsamples = 3\nvalue = [0, 3]"] ;
488 -> 489 ;
490 [label="websocket <= 0.5\ngini = 0.444\nsamples = 3\nvalue = [1, 2]"] ;
488 -> 490 ;
491 [label="gini = 0.0\nsamples = 1\nvalue = [1, 0]"] ;
490 -> 491 ;
492 [label="gini = 0.0\nsamples = 2\nvalue = [0, 2]"] ;
490 -> 492 ;
493 [label="gini = 0.0\nsamples = 175\nvalue = [0, 175]"] ;
481 -> 493 ;
494 [label="gini = 0.0\nsamples = 552\nvalue = [0, 552]"] ;
480 -> 494 ;
495 [label="searchEngine <= 0.5\ngini = 0.013\nsamples = 790\nvalue = [5, 785]"] ;
479 -> 495 ;
496 [label="hibernateCache <= 1.5\ngini = 0.005\nsamples = 398\nvalue = [1, 397]"] ;
495 -> 496 ;
497 [label="gini = 0.0\nsamples = 269\nvalue = [0, 269]"] ;
496 -> 497 ;
498 [label="enableSocialSignIn <= 1.5\ngini = 0.015\nsamples = 129\nvalue = [1, 128]"] ;
496 -> 498 ;
499 [label="gini = 0.0\nsamples = 89\nvalue = [0, 89]"] ;
498 -> 499 ;
500 [label="enableTranslation <= 0.5\ngini = 0.049\nsamples = 40\nvalue = [1, 39]"] ;
498 -> 500 ;
501 [label="useSass <= 1.5\ngini = 0.105\nsamples = 18\nvalue = [1, 17]"] ;
500 -> 501 ;
502 [label="devDatabaseType <= 0.5\ngini = 0.198\nsamples = 9\nvalue = [1, 8]"] ;
501 -> 502 ;
503 [label="gini = 0.0\nsamples = 4\nvalue = [0, 4]"] ;
502 -> 503 ;
504 [label="clusteredHttpSession <= 0.5\ngini = 0.32\nsamples = 5\nvalue = [1, 4]"] ;
502 -> 504 ;
505 [label="websocket <= 0.5\ngini = 0.444\nsamples = 3\nvalue = [1, 2]"] ;
504 -> 505 ;
506 [label="devDatabaseType <= 4.0\ngini = 0.5\nsamples = 2\nvalue = [1, 1]"] ;
505 -> 506 ;
507 [label="gini = 0.0\nsamples = 1\nvalue = [1, 0]"] ;
506 -> 507 ;
508 [label="gini = 0.0\nsamples = 1\nvalue = [0, 1]"] ;
506 -> 508 ;
509 [label="gini = 0.0\nsamples = 1\nvalue = [0, 1]"] ;
505 -> 509 ;
510 [label="gini = 0.0\nsamples = 2\nvalue = [0, 2]"] ;
504 -> 510 ;
511 [label="gini = 0.0\nsamples = 9\nvalue = [0, 9]"] ;
501 -> 511 ;
512 [label="gini = 0.0\nsamples = 22\nvalue = [0, 22]"] ;
500 -> 512 ;
513 [label="hibernateCache <= 0.5\ngini = 0.02\nsamples = 392\nvalue = [4, 388]"] ;
495 -> 513 ;
514 [label="enableTranslation <= 0.5\ngini = 0.045\nsamples = 130\nvalue = [3, 127]"] ;
513 -> 514 ;
515 [label="clusteredHttpSession <= 0.5\ngini = 0.061\nsamples = 63\nvalue = [2, 61]"] ;
514 -> 515 ;
516 [label="gini = 0.0\nsamples = 30\nvalue = [0, 30]"] ;
515 -> 516 ;
517 [label="devDatabaseType <= 0.5\ngini = 0.114\nsamples = 33\nvalue = [2, 31]"] ;
515 -> 517 ;
518 [label="gini = 0.0\nsamples = 12\nvalue = [0, 12]"] ;
517 -> 518 ;
519 [label="authenticationType <= 1.5\ngini = 0.172\nsamples = 21\nvalue = [2, 19]"] ;
517 -> 519 ;
520 [label="gini = 0.0\nsamples = 6\nvalue = [0, 6]"] ;
519 -> 520 ;
521 [label="devDatabaseType <= 4.0\ngini = 0.231\nsamples = 15\nvalue = [2, 13]"] ;
519 -> 521 ;
522 [label="useSass <= 1.5\ngini = 0.245\nsamples = 7\nvalue = [1, 6]"] ;
521 -> 522 ;
523 [label="gini = 0.0\nsamples = 4\nvalue = [0, 4]"] ;
522 -> 523 ;
524 [label="enableSocialSignIn <= 1.5\ngini = 0.444\nsamples = 3\nvalue = [1, 2]"] ;
522 -> 524 ;
525 [label="gini = 0.0\nsamples = 1\nvalue = [0, 1]"] ;
524 -> 525 ;
526 [label="websocket <= 0.5\ngini = 0.5\nsamples = 2\nvalue = [1, 1]"] ;
524 -> 526 ;
527 [label="gini = 0.0\nsamples = 1\nvalue = [1, 0]"] ;
526 -> 527 ;
528 [label="gini = 0.0\nsamples = 1\nvalue = [0, 1]"] ;
526 -> 528 ;
529 [label="websocket <= 0.5\ngini = 0.219\nsamples = 8\nvalue = [1, 7]"] ;
521 -> 529 ;
530 [label="gini = 0.0\nsamples = 4\nvalue = [0, 4]"] ;
529 -> 530 ;
531 [label="useSass <= 1.5\ngini = 0.375\nsamples = 4\nvalue = [1, 3]"] ;
529 -> 531 ;
532 [label="enableSocialSignIn <= 1.5\ngini = 0.5\nsamples = 2\nvalue = [1, 1]"] ;
531 -> 532 ;
533 [label="gini = 0.0\nsamples = 1\nvalue = [1, 0]"] ;
532 -> 533 ;
534 [label="gini = 0.0\nsamples = 1\nvalue = [0, 1]"] ;
532 -> 534 ;
535 [label="gini = 0.0\nsamples = 2\nvalue = [0, 2]"] ;
531 -> 535 ;
536 [label="authenticationType <= 1.5\ngini = 0.029\nsamples = 67\nvalue = [1, 66]"] ;
514 -> 536 ;
537 [label="devDatabaseType <= 0.5\ngini = 0.083\nsamples = 23\nvalue = [1, 22]"] ;
536 -> 537 ;
538 [label="websocket <= 0.5\ngini = 0.219\nsamples = 8\nvalue = [1, 7]"] ;
537 -> 538 ;
539 [label="gini = 0.0\nsamples = 4\nvalue = [0, 4]"] ;
538 -> 539 ;
540 [label="clusteredHttpSession <= 0.5\ngini = 0.375\nsamples = 4\nvalue = [1, 3]"] ;
538 -> 540 ;
541 [label="useSass <= 1.5\ngini = 0.5\nsamples = 2\nvalue = [1, 1]"] ;
540 -> 541 ;
542 [label="gini = 0.0\nsamples = 1\nvalue = [1, 0]"] ;
541 -> 542 ;
543 [label="gini = 0.0\nsamples = 1\nvalue = [0, 1]"] ;
541 -> 543 ;
544 [label="gini = 0.0\nsamples = 2\nvalue = [0, 2]"] ;
540 -> 544 ;
545 [label="gini = 0.0\nsamples = 15\nvalue = [0, 15]"] ;
537 -> 545 ;
546 [label="gini = 0.0\nsamples = 44\nvalue = [0, 44]"] ;
536 -> 546 ;
547 [label="authenticationType <= 1.5\ngini = 0.008\nsamples = 262\nvalue = [1, 261]"] ;
513 -> 547 ;
548 [label="websocket <= 0.5\ngini = 0.022\nsamples = 88\nvalue = [1, 87]"] ;
547 -> 548 ;
549 [label="hibernateCache <= 1.5\ngini = 0.045\nsamples = 43\nvalue = [1, 42]"] ;
548 -> 549 ;
550 [label="useSass <= 1.5\ngini = 0.095\nsamples = 20\nvalue = [1, 19]"] ;
549 -> 550 ;
551 [label="gini = 0.0\nsamples = 10\nvalue = [0, 10]"] ;
550 -> 551 ;
552 [label="devDatabaseType <= 0.5\ngini = 0.18\nsamples = 10\nvalue = [1, 9]"] ;
550 -> 552 ;
553 [label="gini = 0.0\nsamples = 4\nvalue = [0, 4]"] ;
552 -> 553 ;
554 [label="devDatabaseType <= 4.0\ngini = 0.278\nsamples = 6\nvalue = [1, 5]"] ;
552 -> 554 ;
555 [label="clusteredHttpSession <= 0.5\ngini = 0.444\nsamples = 3\nvalue = [1, 2]"] ;
554 -> 555 ;
556 [label="gini = 0.0\nsamples = 1\nvalue = [0, 1]"] ;
555 -> 556 ;
557 [label="enableTranslation <= 0.5\ngini = 0.5\nsamples = 2\nvalue = [1, 1]"] ;
555 -> 557 ;
558 [label="gini = 0.0\nsamples = 1\nvalue = [0, 1]"] ;
557 -> 558 ;
559 [label="gini = 0.0\nsamples = 1\nvalue = [1, 0]"] ;
557 -> 559 ;
560 [label="gini = 0.0\nsamples = 3\nvalue = [0, 3]"] ;
554 -> 560 ;
561 [label="gini = 0.0\nsamples = 23\nvalue = [0, 23]"] ;
549 -> 561 ;
562 [label="gini = 0.0\nsamples = 45\nvalue = [0, 45]"] ;
548 -> 562 ;
563 [label="gini = 0.0\nsamples = 174\nvalue = [0, 174]"] ;
547 -> 563 ;
564 [label="gini = 0.0\nsamples = 3176\nvalue = [0, 3176]"] ;
276 -> 564 ;
565 [label="authenticationType <= 0.5\ngini = 0.171\nsamples = 6331\nvalue = [597, 5734]"] ;
275 -> 565 ;
566 [label="prodDatabaseType <= 3.5\ngini = 0.022\nsamples = 3251\nvalue = [36, 3215]"] ;
565 -> 566 ;
567 [label="buildTool <= 0.5\ngini = 0.031\nsamples = 1631\nvalue = [26, 1605]"] ;
566 -> 567 ;
568 [label="devDatabaseType <= 0.5\ngini = 0.05\nsamples = 815\nvalue = [21, 794]"] ;
567 -> 568 ;
569 [label="applicationType <= 1.5\ngini = 0.014\nsamples = 280\nvalue = [2, 278]"] ;
568 -> 569 ;
570 [label="gini = 0.0\nsamples = 97\nvalue = [0, 97]"] ;
569 -> 570 ;
571 [label="hibernateCache <= 1.5\ngini = 0.022\nsamples = 183\nvalue = [2, 181]"] ;
569 -> 571 ;
572 [label="enableSocialSignIn <= 1.5\ngini = 0.032\nsamples = 124\nvalue = [2, 122]"] ;
571 -> 572 ;
573 [label="useSass <= 1.5\ngini = 0.033\nsamples = 60\nvalue = [1, 59]"] ;
572 -> 573 ;
574 [label="websocket <= 0.5\ngini = 0.067\nsamples = 29\nvalue = [1, 28]"] ;
573 -> 574 ;
575 [label="clusteredHttpSession <= 0.5\ngini = 0.124\nsamples = 15\nvalue = [1, 14]"] ;
574 -> 575 ;
576 [label="gini = 0.0\nsamples = 8\nvalue = [0, 8]"] ;
575 -> 576 ;
577 [label="hibernateCache <= 0.5\ngini = 0.245\nsamples = 7\nvalue = [1, 6]"] ;
575 -> 577 ;
578 [label="searchEngine <= 0.5\ngini = 0.375\nsamples = 4\nvalue = [1, 3]"] ;
577 -> 578 ;
579 [label="enableTranslation <= 0.5\ngini = 0.5\nsamples = 2\nvalue = [1, 1]"] ;
578 -> 579 ;
580 [label="gini = 0.0\nsamples = 1\nvalue = [1, 0]"] ;
579 -> 580 ;
581 [label="gini = 0.0\nsamples = 1\nvalue = [0, 1]"] ;
579 -> 581 ;
582 [label="gini = 0.0\nsamples = 2\nvalue = [0, 2]"] ;
578 -> 582 ;
583 [label="gini = 0.0\nsamples = 3\nvalue = [0, 3]"] ;
577 -> 583 ;
584 [label="gini = 0.0\nsamples = 14\nvalue = [0, 14]"] ;
574 -> 584 ;
585 [label="gini = 0.0\nsamples = 31\nvalue = [0, 31]"] ;
573 -> 585 ;
586 [label="hibernateCache <= 0.5\ngini = 0.031\nsamples = 64\nvalue = [1, 63]"] ;
572 -> 586 ;
587 [label="gini = 0.0\nsamples = 32\nvalue = [0, 32]"] ;
586 -> 587 ;
588 [label="useSass <= 1.5\ngini = 0.061\nsamples = 32\nvalue = [1, 31]"] ;
586 -> 588 ;
589 [label="gini = 0.0\nsamples = 16\nvalue = [0, 16]"] ;
588 -> 589 ;
590 [label="websocket <= 0.5\ngini = 0.117\nsamples = 16\nvalue = [1, 15]"] ;
588 -> 590 ;
591 [label="gini = 0.0\nsamples = 8\nvalue = [0, 8]"] ;
590 -> 591 ;
592 [label="clusteredHttpSession <= 0.5\ngini = 0.219\nsamples = 8\nvalue = [1, 7]"] ;
590 -> 592 ;
593 [label="searchEngine <= 0.5\ngini = 0.375\nsamples = 4\nvalue = [1, 3]"] ;
592 -> 593 ;
594 [label="gini = 0.0\nsamples = 2\nvalue = [0, 2]"] ;
593 -> 594 ;
595 [label="enableTranslation <= 0.5\ngini = 0.5\nsamples = 2\nvalue = [1, 1]"] ;
593 -> 595 ;
596 [label="gini = 0.0\nsamples = 1\nvalue = [0, 1]"] ;
595 -> 596 ;
597 [label="gini = 0.0\nsamples = 1\nvalue = [1, 0]"] ;
595 -> 597 ;
598 [label="gini = 0.0\nsamples = 4\nvalue = [0, 4]"] ;
592 -> 598 ;
599 [label="gini = 0.0\nsamples = 59\nvalue = [0, 59]"] ;
571 -> 599 ;
600 [label="enableSocialSignIn <= 1.5\ngini = 0.069\nsamples = 535\nvalue = [19, 516]"] ;
568 -> 600 ;
601 [label="searchEngine <= 0.5\ngini = 0.048\nsamples = 369\nvalue = [9, 360]"] ;
600 -> 601 ;
602 [label="clusteredHttpSession <= 0.5\ngini = 0.074\nsamples = 183\nvalue = [7, 176]"] ;
601 -> 602 ;
603 [label="applicationType <= 1.0\ngini = 0.023\nsamples = 85\nvalue = [1, 84]"] ;
602 -> 603 ;
604 [label="enableTranslation <= 0.5\ngini = 0.049\nsamples = 40\nvalue = [1, 39]"] ;
603 -> 604 ;
605 [label="websocket <= 0.5\ngini = 0.095\nsamples = 20\nvalue = [1, 19]"] ;
604 -> 605 ;
606 [label="useSass <= 1.5\ngini = 0.18\nsamples = 10\nvalue = [1, 9]"] ;
605 -> 606 ;
607 [label="gini = 0.0\nsamples = 5\nvalue = [0, 5]"] ;
606 -> 607 ;
608 [label="devDatabaseType <= 3.0\ngini = 0.32\nsamples = 5\nvalue = [1, 4]"] ;
606 -> 608 ;
609 [label="gini = 0.0\nsamples = 2\nvalue = [0, 2]"] ;
608 -> 609 ;
610 [label="hibernateCache <= 0.5\ngini = 0.444\nsamples = 3\nvalue = [1, 2]"] ;
608 -> 610 ;
611 [label="gini = 0.0\nsamples = 1\nvalue = [0, 1]"] ;
610 -> 611 ;
612 [label="hibernateCache <= 1.5\ngini = 0.5\nsamples = 2\nvalue = [1, 1]"] ;
610 -> 612 ;
613 [label="gini = 0.0\nsamples = 1\nvalue = [1, 0]"] ;
612 -> 613 ;
614 [label="gini = 0.0\nsamples = 1\nvalue = [0, 1]"] ;
612 -> 614 ;
615 [label="gini = 0.0\nsamples = 10\nvalue = [0, 10]"] ;
605 -> 615 ;
616 [label="gini = 0.0\nsamples = 20\nvalue = [0, 20]"] ;
604 -> 616 ;
617 [label="gini = 0.0\nsamples = 45\nvalue = [0, 45]"] ;
603 -> 617 ;
618 [label="applicationType <= 1.5\ngini = 0.115\nsamples = 98\nvalue = [6, 92]"] ;
602 -> 618 ;
619 [label="hibernateCache <= 1.5\ngini = 0.036\nsamples = 55\nvalue = [1, 54]"] ;
618 -> 619 ;
620 [label="gini = 0.0\nsamples = 36\nvalue = [0, 36]"] ;
619 -> 620 ;
621 [label="enableTranslation <= 0.5\ngini = 0.1\nsamples = 19\nvalue = [1, 18]"] ;
619 -> 621 ;
622 [label="gini = 0.0\nsamples = 10\nvalue = [0, 10]"] ;
621 -> 622 ;
623 [label="devDatabaseType <= 3.0\ngini = 0.198\nsamples = 9\nvalue = [1, 8]"] ;
621 -> 623 ;
624 [label="websocket <= 0.5\ngini = 0.32\nsamples = 5\nvalue = [1, 4]"] ;
623 -> 624 ;
625 [label="gini = 0.0\nsamples = 2\nvalue = [0, 2]"] ;
624 -> 625 ;
626 [label="websocket <= 1.5\ngini = 0.444\nsamples = 3\nvalue = [1, 2]"] ;
624 -> 626 ;
627 [label="useSass <= 1.5\ngini = 0.5\nsamples = 2\nvalue = [1, 1]"] ;
626 -> 627 ;
628 [label="gini = 0.0\nsamples = 1\nvalue = [1, 0]"] ;
627 -> 628 ;
629 [label="gini = 0.0\nsamples = 1\nvalue = [0, 1]"] ;
627 -> 629 ;
630 [label="gini = 0.0\nsamples = 1\nvalue = [0, 1]"] ;
626 -> 630 ;
631 [label="gini = 0.0\nsamples = 4\nvalue = [0, 4]"] ;
623 -> 631 ;
632 [label="hibernateCache <= 0.5\ngini = 0.206\nsamples = 43\nvalue = [5, 38]"] ;
618 -> 632 ;
633 [label="devDatabaseType <= 3.0\ngini = 0.117\nsamples = 16\nvalue = [1, 15]"] ;
632 -> 633 ;
634 [label="gini = 0.0\nsamples = 8\nvalue = [0, 8]"] ;
633 -> 634 ;
635 [label="websocket <= 0.5\ngini = 0.219\nsamples = 8\nvalue = [1, 7]"] ;
633 -> 635 ;
636 [label="enableTranslation <= 0.5\ngini = 0.375\nsamples = 4\nvalue = [1, 3]"] ;
635 -> 636 ;
637 [label="gini = 0.0\nsamples = 2\nvalue = [0, 2]"] ;
636 -> 637 ;
638 [label="useSass <= 1.5\ngini = 0.5\nsamples = 2\nvalue = [1, 1]"] ;
636 -> 638 ;
639 [label="gini = 0.0\nsamples = 1\nvalue = [1, 0]"] ;
638 -> 639 ;
640 [label="gini = 0.0\nsamples = 1\nvalue = [0, 1]"] ;
638 -> 640 ;
641 [label="gini = 0.0\nsamples = 4\nvalue = [0, 4]"] ;
635 -> 641 ;
642 [label="hibernateCache <= 1.5\ngini = 0.252\nsamples = 27\nvalue = [4, 23]"] ;
632 -> 642 ;
643 [label="useSass <= 1.5\ngini = 0.375\nsamples = 12\nvalue = [3, 9]"] ;
642 -> 643 ;
644 [label="websocket <= 0.5\ngini = 0.444\nsamples = 6\nvalue = [2, 4]"] ;
643 -> 644 ;
645 [label="gini = 0.0\nsamples = 3\nvalue = [0, 3]"] ;
644 -> 645 ;
646 [label="enableTranslation <= 0.5\ngini = 0.444\nsamples = 3\nvalue = [2, 1]"] ;
644 -> 646 ;
647 [label="gini = 0.0\nsamples = 2\nvalue = [2, 0]"] ;
646 -> 647 ;
648 [label="gini = 0.0\nsamples = 1\nvalue = [0, 1]"] ;
646 -> 648 ;
649 [label="enableTranslation <= 0.5\ngini = 0.278\nsamples = 6\nvalue = [1, 5]"] ;
643 -> 649 ;
650 [label="gini = 0.0\nsamples = 3\nvalue = [0, 3]"] ;
649 -> 650 ;
651 [label="websocket <= 0.5\ngini = 0.444\nsamples = 3\nvalue = [1, 2]"] ;
649 -> 651 ;
652 [label="gini = 0.0\nsamples = 1\nvalue = [1, 0]"] ;
651 -> 652 ;
653 [label="gini = 0.0\nsamples = 2\nvalue = [0, 2]"] ;
651 -> 653 ;
654 [label="enableTranslation <= 0.5\ngini = 0.124\nsamples = 15\nvalue = [1, 14]"] ;
642 -> 654 ;
655 [label="gini = 0.0\nsamples = 8\nvalue = [0, 8]"] ;
654 -> 655 ;
656 [label="websocket <= 0.5\ngini = 0.245\nsamples = 7\nvalue = [1, 6]"] ;
654 -> 656 ;
657 [label="useSass <= 1.5\ngini = 0.375\nsamples = 4\nvalue = [1, 3]"] ;
656 -> 657 ;
658 [label="gini = 0.0\nsamples = 2\nvalue = [0, 2]"] ;
657 -> 658 ;
659 [label="devDatabaseType <= 3.0\ngini = 0.5\nsamples = 2\nvalue = [1, 1]"] ;
657 -> 659 ;
660 [label="gini = 0.0\nsamples = 1\nvalue = [0, 1]"] ;
659 -> 660 ;
661 [label="gini = 0.0\nsamples = 1\nvalue = [1, 0]"] ;
659 -> 661 ;
662 [label="gini = 0.0\nsamples = 3\nvalue = [0, 3]"] ;
656 -> 662 ;
663 [label="devDatabaseType <= 3.0\ngini = 0.021\nsamples = 186\nvalue = [2, 184]"] ;
601 -> 663 ;
664 [label="websocket <= 0.5\ngini = 0.042\nsamples = 94\nvalue = [2, 92]"] ;
663 -> 664 ;
665 [label="gini = 0.0\nsamples = 42\nvalue = [0, 42]"] ;
664 -> 665 ;
666 [label="hibernateCache <= 1.5\ngini = 0.074\nsamples = 52\nvalue = [2, 50]"] ;
664 -> 666 ;
667 [label="clusteredHttpSession <= 1.5\ngini = 0.111\nsamples = 34\nvalue = [2, 32]"] ;
666 -> 667 ;
668 [label="clusteredHttpSession <= 0.5\ngini = 0.124\nsamples = 30\nvalue = [2, 28]"] ;
667 -> 668 ;
669 [label="hibernateCache <= 0.5\ngini = 0.133\nsamples = 14\nvalue = [1, 13]"] ;
668 -> 669 ;
670 [label="gini = 0.0\nsamples = 8\nvalue = [0, 8]"] ;
669 -> 670 ;
671 [label="enableTranslation <= 0.5\ngini = 0.278\nsamples = 6\nvalue = [1, 5]"] ;
669 -> 671 ;
672 [label="gini = 0.0\nsamples = 3\nvalue = [0, 3]"] ;
671 -> 672 ;
673 [label="useSass <= 1.5\ngini = 0.444\nsamples = 3\nvalue = [1, 2]"] ;
671 -> 673 ;
674 [label="applicationType <= 1.0\ngini = 0.5\nsamples = 2\nvalue = [1, 1]"] ;
673 -> 674 ;
675 [label="gini = 0.0\nsamples = 1\nvalue = [0, 1]"] ;
674 -> 675 ;
676 [label="gini = 0.0\nsamples = 1\nvalue = [1, 0]"] ;
674 -> 676 ;
677 [label="gini = 0.0\nsamples = 1\nvalue = [0, 1]"] ;
673 -> 677 ;
678 [label="enableTranslation <= 0.5\ngini = 0.117\nsamples = 16\nvalue = [1, 15]"] ;
668 -> 678 ;
679 [label="hibernateCache <= 0.5\ngini = 0.219\nsamples = 8\nvalue = [1, 7]"] ;
678 -> 679 ;
680 [label="useSass <= 1.5\ngini = 0.375\nsamples = 4\nvalue = [1, 3]"] ;
679 -> 680 ;
681 [label="gini = 0.0\nsamples = 2\nvalue = [0, 2]"] ;
680 -> 681 ;
682 [label="applicationType <= 1.0\ngini = 0.5\nsamples = 2\nvalue = [1, 1]"] ;
680 -> 682 ;
683 [label="gini = 0.0\nsamples = 1\nvalue = [1, 0]"] ;
682 -> 683 ;
684 [label="gini = 0.0\nsamples = 1\nvalue = [0, 1]"] ;
682 -> 684 ;
685 [label="gini = 0.0\nsamples = 4\nvalue = [0, 4]"] ;
679 -> 685 ;
686 [label="gini = 0.0\nsamples = 8\nvalue = [0, 8]"] ;
678 -> 686 ;
687 [label="gini = 0.0\nsamples = 4\nvalue = [0, 4]"] ;
667 -> 687 ;
688 [label="gini = 0.0\nsamples = 18\nvalue = [0, 18]"] ;
666 -> 688 ;
689 [label="gini = 0.0\nsamples = 92\nvalue = [0, 92]"] ;
663 -> 689 ;
690 [label="hibernateCache <= 0.5\ngini = 0.113\nsamples = 166\nvalue = [10, 156]"] ;
600 -> 690 ;
691 [label="enableTranslation <= 0.5\ngini = 0.222\nsamples = 55\nvalue = [7, 48]"] ;
690 -> 691 ;
692 [label="searchEngine <= 0.5\ngini = 0.133\nsamples = 28\nvalue = [2, 26]"] ;
691 -> 692 ;
693 [label="gini = 0.0\nsamples = 15\nvalue = [0, 15]"] ;
692 -> 693 ;
694 [label="devDatabaseType <= 3.0\ngini = 0.26\nsamples = 13\nvalue = [2, 11]"] ;
692 -> 694 ;
695 [label="gini = 0.0\nsamples = 6\nvalue = [0, 6]"] ;
694 -> 695 ;
696 [label="websocket <= 0.5\ngini = 0.408\nsamples = 7\nvalue = [2, 5]"] ;
694 -> 696 ;
697 [label="gini = 0.0\nsamples = 3\nvalue = [0, 3]"] ;
696 -> 697 ;
698 [label="useSass <= 1.5\ngini = 0.5\nsamples = 4\nvalue = [2, 2]"] ;
696 -> 698 ;
699 [label="clusteredHttpSession <= 0.5\ngini = 0.5\nsamples = 2\nvalue = [1, 1]"] ;
698 -> 699 ;
700 [label="gini = 0.0\nsamples = 1\nvalue = [0, 1]"] ;
699 -> 700 ;
701 [label="gini = 0.0\nsamples = 1\nvalue = [1, 0]"] ;
699 -> 701 ;
702 [label="clusteredHttpSession <= 0.5\ngini = 0.5\nsamples = 2\nvalue = [1, 1]"] ;
698 -> 702 ;
703 [label="gini = 0.0\nsamples = 1\nvalue = [1, 0]"] ;
702 -> 703 ;
704 [label="gini = 0.0\nsamples = 1\nvalue = [0, 1]"] ;
702 -> 704 ;
705 [label="devDatabaseType <= 3.0\ngini = 0.302\nsamples = 27\nvalue = [5, 22]"] ;
691 -> 705 ;
706 [label="useSass <= 1.5\ngini = 0.375\nsamples = 12\nvalue = [3, 9]"] ;
705 -> 706 ;
707 [label="gini = 0.0\nsamples = 6\nvalue = [0, 6]"] ;
706 -> 707 ;
708 [label="clusteredHttpSession <= 0.5\ngini = 0.5\nsamples = 6\nvalue = [3, 3]"] ;
706 -> 708 ;
709 [label="websocket <= 0.5\ngini = 0.444\nsamples = 3\nvalue = [2, 1]"] ;
708 -> 709 ;
710 [label="searchEngine <= 0.5\ngini = 0.5\nsamples = 2\nvalue = [1, 1]"] ;
709 -> 710 ;
711 [label="gini = 0.0\nsamples = 1\nvalue = [0, 1]"] ;
710 -> 711 ;
712 [label="gini = 0.0\nsamples = 1\nvalue = [1, 0]"] ;
710 -> 712 ;
713 [label="gini = 0.0\nsamples = 1\nvalue = [1, 0]"] ;
709 -> 713 ;
714 [label="websocket <= 0.5\ngini = 0.444\nsamples = 3\nvalue = [1, 2]"] ;
708 -> 714 ;
715 [label="searchEngine <= 0.5\ngini = 0.5\nsamples = 2\nvalue = [1, 1]"] ;
714 -> 715 ;
716 [label="gini = 0.0\nsamples = 1\nvalue = [1, 0]"] ;
715 -> 716 ;
717 [label="gini = 0.0\nsamples = 1\nvalue = [0, 1]"] ;
715 -> 717 ;
718 [label="gini = 0.0\nsamples = 1\nvalue = [0, 1]"] ;
714 -> 718 ;
719 [label="useSass <= 1.5\ngini = 0.231\nsamples = 15\nvalue = [2, 13]"] ;
705 -> 719 ;
720 [label="searchEngine <= 0.5\ngini = 0.375\nsamples = 8\nvalue = [2, 6]"] ;
719 -> 720 ;
721 [label="websocket <= 0.5\ngini = 0.375\nsamples = 4\nvalue = [1, 3]"] ;
720 -> 721 ;
722 [label="gini = 0.0\nsamples = 2\nvalue = [0, 2]"] ;
721 -> 722 ;
723 [label="clusteredHttpSession <= 0.5\ngini = 0.5\nsamples = 2\nvalue = [1, 1]"] ;
721 -> 723 ;
724 [label="gini = 0.0\nsamples = 1\nvalue = [1, 0]"] ;
723 -> 724 ;
725 [label="gini = 0.0\nsamples = 1\nvalue = [0, 1]"] ;
723 -> 725 ;
726 [label="websocket <= 0.5\ngini = 0.375\nsamples = 4\nvalue = [1, 3]"] ;
720 -> 726 ;
727 [label="clusteredHttpSession <= 0.5\ngini = 0.5\nsamples = 2\nvalue = [1, 1]"] ;
726 -> 727 ;
728 [label="gini = 0.0\nsamples = 1\nvalue = [0, 1]"] ;
727 -> 728 ;
729 [label="gini = 0.0\nsamples = 1\nvalue = [1, 0]"] ;
727 -> 729 ;
730 [label="gini = 0.0\nsamples = 2\nvalue = [0, 2]"] ;
726 -> 730 ;
731 [label="gini = 0.0\nsamples = 7\nvalue = [0, 7]"] ;
719 -> 731 ;
732 [label="clusteredHttpSession <= 0.5\ngini = 0.053\nsamples = 111\nvalue = [3, 108]"] ;
690 -> 732 ;
733 [label="websocket <= 0.5\ngini = 0.103\nsamples = 55\nvalue = [3, 52]"] ;
732 -> 733 ;
734 [label="hibernateCache <= 1.5\ngini = 0.137\nsamples = 27\nvalue = [2, 25]"] ;
733 -> 734 ;
735 [label="useSass <= 1.5\ngini = 0.245\nsamples = 14\nvalue = [2, 12]"] ;
734 -> 735 ;
736 [label="searchEngine <= 0.5\ngini = 0.219\nsamples = 8\nvalue = [1, 7]"] ;
735 -> 736 ;
737 [label="enableTranslation <= 0.5\ngini = 0.375\nsamples = 4\nvalue = [1, 3]"] ;
736 -> 737 ;
738 [label="gini = 0.0\nsamples = 2\nvalue = [0, 2]"] ;
737 -> 738 ;
739 [label="devDatabaseType <= 3.0\ngini = 0.5\nsamples = 2\nvalue = [1, 1]"] ;
737 -> 739 ;
740 [label="gini = 0.0\nsamples = 1\nvalue = [0, 1]"] ;
739 -> 740 ;
741 [label="gini = 0.0\nsamples = 1\nvalue = [1, 0]"] ;
739 -> 741 ;
742 [label="gini = 0.0\nsamples = 4\nvalue = [0, 4]"] ;
736 -> 742 ;
743 [label="searchEngine <= 0.5\ngini = 0.278\nsamples = 6\nvalue = [1, 5]"] ;
735 -> 743 ;
744 [label="gini = 0.0\nsamples = 3\nvalue = [0, 3]"] ;
743 -> 744 ;
745 [label="devDatabaseType <= 3.0\ngini = 0.444\nsamples = 3\nvalue = [1, 2]"] ;
743 -> 745 ;
746 [label="enableTranslation <= 0.5\ngini = 0.5\nsamples = 2\nvalue = [1, 1]"] ;
745 -> 746 ;
747 [label="gini = 0.0\nsamples = 1\nvalue = [1, 0]"] ;
746 -> 747 ;
748 [label="gini = 0.0\nsamples = 1\nvalue = [0, 1]"] ;
746 -> 748 ;
749 [label="gini = 0.0\nsamples = 1\nvalue = [0, 1]"] ;
745 -> 749 ;
750 [label="gini = 0.0\nsamples = 13\nvalue = [0, 13]"] ;
734 -> 750 ;
751 [label="devDatabaseType <= 3.0\ngini = 0.069\nsamples = 28\nvalue = [1, 27]"] ;
733 -> 751 ;
752 [label="enableTranslation <= 0.5\ngini = 0.133\nsamples = 14\nvalue = [1, 13]"] ;
751 -> 752 ;
753 [label="hibernateCache <= 1.5\ngini = 0.245\nsamples = 7\nvalue = [1, 6]"] ;
752 -> 753 ;
754 [label="gini = 0.0\nsamples = 4\nvalue = [0, 4]"] ;
753 -> 754 ;
755 [label="useSass <= 1.5\ngini = 0.444\nsamples = 3\nvalue = [1, 2]"] ;
753 -> 755 ;
756 [label="searchEngine <= 0.5\ngini = 0.5\nsamples = 2\nvalue = [1, 1]"] ;
755 -> 756 ;
757 [label="gini = 0.0\nsamples = 1\nvalue = [1, 0]"] ;
756 -> 757 ;
758 [label="gini = 0.0\nsamples = 1\nvalue = [0, 1]"] ;
756 -> 758 ;
759 [label="gini = 0.0\nsamples = 1\nvalue = [0, 1]"] ;
755 -> 759 ;
760 [label="gini = 0.0\nsamples = 7\nvalue = [0, 7]"] ;
752 -> 760 ;
761 [label="gini = 0.0\nsamples = 14\nvalue = [0, 14]"] ;
751 -> 761 ;
762 [label="gini = 0.0\nsamples = 56\nvalue = [0, 56]"] ;
732 -> 762 ;
763 [label="clusteredHttpSession <= 0.5\ngini = 0.012\nsamples = 816\nvalue = [5, 811]"] ;
567 -> 763 ;
764 [label="useSass <= 1.5\ngini = 0.02\nsamples = 395\nvalue = [4, 391]"] ;
763 -> 764 ;
765 [label="enableTranslation <= 0.5\ngini = 0.03\nsamples = 200\nvalue = [3, 197]"] ;
764 -> 765 ;
766 [label="hibernateCache <= 0.5\ngini = 0.059\nsamples = 98\nvalue = [3, 95]"] ;
765 -> 766 ;
767 [label="devDatabaseType <= 3.0\ngini = 0.117\nsamples = 32\nvalue = [2, 30]"] ;
766 -> 767 ;
768 [label="enableSocialSignIn <= 1.5\ngini = 0.172\nsamples = 21\nvalue = [2, 19]"] ;
767 -> 768 ;
769 [label="devDatabaseType <= 0.5\ngini = 0.245\nsamples = 14\nvalue = [2, 12]"] ;
768 -> 769 ;
770 [label="searchEngine <= 0.5\ngini = 0.219\nsamples = 8\nvalue = [1, 7]"] ;
769 -> 770 ;
771 [label="gini = 0.0\nsamples = 4\nvalue = [0, 4]"] ;
770 -> 771 ;
772 [label="applicationType <= 1.0\ngini = 0.375\nsamples = 4\nvalue = [1, 3]"] ;
770 -> 772 ;
773 [label="gini = 0.0\nsamples = 2\nvalue = [0, 2]"] ;
772 -> 773 ;
774 [label="websocket <= 0.5\ngini = 0.5\nsamples = 2\nvalue = [1, 1]"] ;
772 -> 774 ;
775 [label="gini = 0.0\nsamples = 1\nvalue = [0, 1]"] ;
774 -> 775 ;
776 [label="gini = 0.0\nsamples = 1\nvalue = [1, 0]"] ;
774 -> 776 ;
777 [label="searchEngine <= 0.5\ngini = 0.278\nsamples = 6\nvalue = [1, 5]"] ;
769 -> 777 ;
778 [label="websocket <= 0.5\ngini = 0.444\nsamples = 3\nvalue = [1, 2]"] ;
777 -> 778 ;
779 [label="applicationType <= 1.0\ngini = 0.5\nsamples = 2\nvalue = [1, 1]"] ;
778 -> 779 ;
780 [label="gini = 0.0\nsamples = 1\nvalue = [1, 0]"] ;
779 -> 780 ;
781 [label="gini = 0.0\nsamples = 1\nvalue = [0, 1]"] ;
779 -> 781 ;
782 [label="gini = 0.0\nsamples = 1\nvalue = [0, 1]"] ;
778 -> 782 ;
783 [label="gini = 0.0\nsamples = 3\nvalue = [0, 3]"] ;
777 -> 783 ;
784 [label="gini = 0.0\nsamples = 7\nvalue = [0, 7]"] ;
768 -> 784 ;
785 [label="gini = 0.0\nsamples = 11\nvalue = [0, 11]"] ;
767 -> 785 ;
786 [label="devDatabaseType <= 3.0\ngini = 0.03\nsamples = 66\nvalue = [1, 65]"] ;
766 -> 786 ;
787 [label="gini = 0.0\nsamples = 44\nvalue = [0, 44]"] ;
786 -> 787 ;
788 [label="enableSocialSignIn <= 1.5\ngini = 0.087\nsamples = 22\nvalue = [1, 21]"] ;
786 -> 788 ;
789 [label="gini = 0.0\nsamples = 14\nvalue = [0, 14]"] ;
788 -> 789 ;
790 [label="websocket <= 0.5\ngini = 0.219\nsamples = 8\nvalue = [1, 7]"] ;
788 -> 790 ;
791 [label="gini = 0.0\nsamples = 4\nvalue = [0, 4]"] ;
790 -> 791 ;
792 [label="hibernateCache <= 1.5\ngini = 0.375\nsamples = 4\nvalue = [1, 3]"] ;
790 -> 792 ;
793 [label="gini = 0.0\nsamples = 2\nvalue = [0, 2]"] ;
792 -> 793 ;
794 [label="searchEngine <= 0.5\ngini = 0.5\nsamples = 2\nvalue = [1, 1]"] ;
792 -> 794 ;
795 [label="gini = 0.0\nsamples = 1\nvalue = [0, 1]"] ;
794 -> 795 ;
796 [label="gini = 0.0\nsamples = 1\nvalue = [1, 0]"] ;
794 -> 796 ;
797 [label="gini = 0.0\nsamples = 102\nvalue = [0, 102]"] ;
765 -> 797 ;
798 [label="devDatabaseType <= 0.5\ngini = 0.01\nsamples = 195\nvalue = [1, 194]"] ;
764 -> 798 ;
799 [label="enableTranslation <= 0.5\ngini = 0.031\nsamples = 64\nvalue = [1, 63]"] ;
798 -> 799 ;
800 [label="gini = 0.0\nsamples = 34\nvalue = [0, 34]"] ;
799 -> 800 ;
801 [label="searchEngine <= 0.5\ngini = 0.064\nsamples = 30\nvalue = [1, 29]"] ;
799 -> 801 ;
802 [label="websocket <= 0.5\ngini = 0.133\nsamples = 14\nvalue = [1, 13]"] ;
801 -> 802 ;
803 [label="applicationType <= 1.0\ngini = 0.245\nsamples = 7\nvalue = [1, 6]"] ;
802 -> 803 ;
804 [label="gini = 0.0\nsamples = 3\nvalue = [0, 3]"] ;
803 -> 804 ;
805 [label="enableSocialSignIn <= 1.5\ngini = 0.375\nsamples = 4\nvalue = [1, 3]"] ;
803 -> 805 ;
806 [label="hibernateCache <= 1.5\ngini = 0.5\nsamples = 2\nvalue = [1, 1]"] ;
805 -> 806 ;
807 [label="gini = 0.0\nsamples = 1\nvalue = [1, 0]"] ;
806 -> 807 ;
808 [label="gini = 0.0\nsamples = 1\nvalue = [0, 1]"] ;
806 -> 808 ;
809 [label="gini = 0.0\nsamples = 2\nvalue = [0, 2]"] ;
805 -> 809 ;
810 [label="gini = 0.0\nsamples = 7\nvalue = [0, 7]"] ;
802 -> 810 ;
811 [label="gini = 0.0\nsamples = 16\nvalue = [0, 16]"] ;
801 -> 811 ;
812 [label="gini = 0.0\nsamples = 131\nvalue = [0, 131]"] ;
798 -> 812 ;
813 [label="enableSocialSignIn <= 1.5\ngini = 0.005\nsamples = 421\nvalue = [1, 420]"] ;
763 -> 813 ;
814 [label="gini = 0.0\nsamples = 290\nvalue = [0, 290]"] ;
813 -> 814 ;
815 [label="hibernateCache <= 1.5\ngini = 0.015\nsamples = 131\nvalue = [1, 130]"] ;
813 -> 815 ;
816 [label="gini = 0.0\nsamples = 90\nvalue = [0, 90]"] ;
815 -> 816 ;
817 [label="devDatabaseType <= 3.0\ngini = 0.048\nsamples = 41\nvalue = [1, 40]"] ;
815 -> 817 ;
818 [label="gini = 0.0\nsamples = 29\nvalue = [0, 29]"] ;
817 -> 818 ;
819 [label="useSass <= 1.5\ngini = 0.153\nsamples = 12\nvalue = [1, 11]"] ;
817 -> 819 ;
820 [label="gini = 0.0\nsamples = 6\nvalue = [0, 6]"] ;
819 -> 820 ;
821 [label="searchEngine <= 0.5\ngini = 0.278\nsamples = 6\nvalue = [1, 5]"] ;
819 -> 821 ;
822 [label="websocket <= 0.5\ngini = 0.5\nsamples = 2\nvalue = [1, 1]"] ;
821 -> 822 ;
823 [label="gini = 0.0\nsamples = 1\nvalue = [0, 1]"] ;
822 -> 823 ;
824 [label="gini = 0.0\nsamples = 1\nvalue = [1, 0]"] ;
822 -> 824 ;
825 [label="gini = 0.0\nsamples = 4\nvalue = [0, 4]"] ;
821 -> 825 ;
826 [label="clusteredHttpSession <= 0.5\ngini = 0.012\nsamples = 1620\nvalue = [10, 1610]"] ;
566 -> 826 ;
827 [label="buildTool <= 0.5\ngini = 0.02\nsamples = 776\nvalue = [8, 768]"] ;
826 -> 827 ;
828 [label="hibernateCache <= 0.5\ngini = 0.01\nsamples = 391\nvalue = [2, 389]"] ;
827 -> 828 ;
829 [label="searchEngine <= 0.5\ngini = 0.03\nsamples = 130\nvalue = [2, 128]"] ;
828 -> 829 ;
830 [label="gini = 0.0\nsamples = 67\nvalue = [0, 67]"] ;
829 -> 830 ;
831 [label="useSass <= 1.5\ngini = 0.061\nsamples = 63\nvalue = [2, 61]"] ;
829 -> 831 ;
832 [label="devDatabaseType <= 0.5\ngini = 0.121\nsamples = 31\nvalue = [2, 29]"] ;
831 -> 832 ;
833 [label="gini = 0.0\nsamples = 10\nvalue = [0, 10]"] ;
832 -> 833 ;
834 [label="applicationType <= 1.0\ngini = 0.172\nsamples = 21\nvalue = [2, 19]"] ;
832 -> 834 ;
835 [label="websocket <= 0.5\ngini = 0.245\nsamples = 7\nvalue = [1, 6]"] ;
834 -> 835 ;
836 [label="gini = 0.0\nsamples = 4\nvalue = [0, 4]"] ;
835 -> 836 ;
837 [label="devDatabaseType <= 4.0\ngini = 0.444\nsamples = 3\nvalue = [1, 2]"] ;
835 -> 837 ;
838 [label="gini = 0.0\nsamples = 1\nvalue = [1, 0]"] ;
837 -> 838 ;
839 [label="gini = 0.0\nsamples = 2\nvalue = [0, 2]"] ;
837 -> 839 ;
840 [label="websocket <= 0.5\ngini = 0.133\nsamples = 14\nvalue = [1, 13]"] ;
834 -> 840 ;
841 [label="devDatabaseType <= 4.0\ngini = 0.245\nsamples = 7\nvalue = [1, 6]"] ;
840 -> 841 ;
842 [label="gini = 0.0\nsamples = 3\nvalue = [0, 3]"] ;
841 -> 842 ;
843 [label="enableSocialSignIn <= 1.5\ngini = 0.375\nsamples = 4\nvalue = [1, 3]"] ;
841 -> 843 ;
844 [label="gini = 0.0\nsamples = 2\nvalue = [0, 2]"] ;
843 -> 844 ;
845 [label="enableTranslation <= 0.5\ngini = 0.5\nsamples = 2\nvalue = [1, 1]"] ;
843 -> 845 ;
846 [label="gini = 0.0\nsamples = 1\nvalue = [1, 0]"] ;
845 -> 846 ;
847 [label="gini = 0.0\nsamples = 1\nvalue = [0, 1]"] ;
845 -> 847 ;
848 [label="gini = 0.0\nsamples = 7\nvalue = [0, 7]"] ;
840 -> 848 ;
849 [label="gini = 0.0\nsamples = 32\nvalue = [0, 32]"] ;
831 -> 849 ;
850 [label="gini = 0.0\nsamples = 261\nvalue = [0, 261]"] ;
828 -> 850 ;
851 [label="hibernateCache <= 0.5\ngini = 0.031\nsamples = 385\nvalue = [6, 379]"] ;
827 -> 851 ;
852 [label="applicationType <= 1.0\ngini = 0.016\nsamples = 127\nvalue = [1, 126]"] ;
851 -> 852 ;
853 [label="websocket <= 0.5\ngini = 0.045\nsamples = 43\nvalue = [1, 42]"] ;
852 -> 853 ;
854 [label="gini = 0.0\nsamples = 23\nvalue = [0, 23]"] ;
853 -> 854 ;
855 [label="searchEngine <= 0.5\ngini = 0.095\nsamples = 20\nvalue = [1, 19]"] ;
853 -> 855 ;
856 [label="enableTranslation <= 0.5\ngini = 0.198\nsamples = 9\nvalue = [1, 8]"] ;
855 -> 856 ;
857 [label="devDatabaseType <= 4.0\ngini = 0.375\nsamples = 4\nvalue = [1, 3]"] ;
856 -> 857 ;
858 [label="useSass <= 1.5\ngini = 0.5\nsamples = 2\nvalue = [1, 1]"] ;
857 -> 858 ;
859 [label="gini = 0.0\nsamples = 1\nvalue = [1, 0]"] ;
858 -> 859 ;
860 [label="gini = 0.0\nsamples = 1\nvalue = [0, 1]"] ;
858 -> 860 ;
861 [label="gini = 0.0\nsamples = 2\nvalue = [0, 2]"] ;
857 -> 861 ;
862 [label="gini = 0.0\nsamples = 5\nvalue = [0, 5]"] ;
856 -> 862 ;
863 [label="gini = 0.0\nsamples = 11\nvalue = [0, 11]"] ;
855 -> 863 ;
864 [label="gini = 0.0\nsamples = 84\nvalue = [0, 84]"] ;
852 -> 864 ;
865 [label="devDatabaseType <= 4.0\ngini = 0.038\nsamples = 258\nvalue = [5, 253]"] ;
851 -> 865 ;
866 [label="searchEngine <= 0.5\ngini = 0.023\nsamples = 170\nvalue = [2, 168]"] ;
865 -> 866 ;
867 [label="hibernateCache <= 1.5\ngini = 0.046\nsamples = 85\nvalue = [2, 83]"] ;
866 -> 867 ;
868 [label="gini = 0.0\nsamples = 42\nvalue = [0, 42]"] ;
867 -> 868 ;
869 [label="enableSocialSignIn <= 1.5\ngini = 0.089\nsamples = 43\nvalue = [2, 41]"] ;
867 -> 869 ;
870 [label="enableTranslation <= 0.5\ngini = 0.133\nsamples = 28\nvalue = [2, 26]"] ;
869 -> 870 ;
871 [label="devDatabaseType <= 0.5\ngini = 0.153\nsamples = 12\nvalue = [1, 11]"] ;
870 -> 871 ;
872 [label="applicationType <= 1.0\ngini = 0.32\nsamples = 5\nvalue = [1, 4]"] ;
871 -> 872 ;
873 [label="websocket <= 0.5\ngini = 0.444\nsamples = 3\nvalue = [1, 2]"] ;
872 -> 873 ;
874 [label="gini = 0.0\nsamples = 1\nvalue = [0, 1]"] ;
873 -> 874 ;
875 [label="useSass <= 1.5\ngini = 0.5\nsamples = 2\nvalue = [1, 1]"] ;
873 -> 875 ;
876 [label="gini = 0.0\nsamples = 1\nvalue = [1, 0]"] ;
875 -> 876 ;
877 [label="gini = 0.0\nsamples = 1\nvalue = [0, 1]"] ;
875 -> 877 ;
878 [label="gini = 0.0\nsamples = 2\nvalue = [0, 2]"] ;
872 -> 878 ;
879 [label="gini = 0.0\nsamples = 7\nvalue = [0, 7]"] ;
871 -> 879 ;
880 [label="useSass <= 1.5\ngini = 0.117\nsamples = 16\nvalue = [1, 15]"] ;
870 -> 880 ;
881 [label="gini = 0.0\nsamples = 8\nvalue = [0, 8]"] ;
880 -> 881 ;
882 [label="devDatabaseType <= 0.5\ngini = 0.219\nsamples = 8\nvalue = [1, 7]"] ;
880 -> 882 ;
883 [label="gini = 0.0\nsamples = 4\nvalue = [0, 4]"] ;
882 -> 883 ;
884 [label="websocket <= 0.5\ngini = 0.375\nsamples = 4\nvalue = [1, 3]"] ;
882 -> 884 ;
885 [label="applicationType <= 1.0\ngini = 0.5\nsamples = 2\nvalue = [1, 1]"] ;
884 -> 885 ;
886 [label="gini = 0.0\nsamples = 1\nvalue = [0, 1]"] ;
885 -> 886 ;
887 [label="gini = 0.0\nsamples = 1\nvalue = [1, 0]"] ;
885 -> 887 ;
888 [label="gini = 0.0\nsamples = 2\nvalue = [0, 2]"] ;
884 -> 888 ;
889 [label="gini = 0.0\nsamples = 15\nvalue = [0, 15]"] ;
869 -> 889 ;
890 [label="gini = 0.0\nsamples = 85\nvalue = [0, 85]"] ;
866 -> 890 ;
891 [label="searchEngine <= 0.5\ngini = 0.066\nsamples = 88\nvalue = [3, 85]"] ;
865 -> 891 ;
892 [label="gini = 0.0\nsamples = 41\nvalue = [0, 41]"] ;
891 -> 892 ;
893 [label="enableSocialSignIn <= 1.5\ngini = 0.12\nsamples = 47\nvalue = [3, 44]"] ;
891 -> 893 ;
894 [label="hibernateCache <= 1.5\ngini = 0.062\nsamples = 31\nvalue = [1, 30]"] ;
893 -> 894 ;
895 [label="enableTranslation <= 0.5\ngini = 0.124\nsamples = 15\nvalue = [1, 14]"] ;
894 -> 895 ;
896 [label="gini = 0.0\nsamples = 8\nvalue = [0, 8]"] ;
895 -> 896 ;
897 [label="useSass <= 1.5\ngini = 0.245\nsamples = 7\nvalue = [1, 6]"] ;
895 -> 897 ;
898 [label="applicationType <= 1.0\ngini = 0.375\nsamples = 4\nvalue = [1, 3]"] ;
897 -> 898 ;
899 [label="gini = 0.0\nsamples = 2\nvalue = [0, 2]"] ;
898 -> 899 ;
900 [label="websocket <= 0.5\ngini = 0.5\nsamples = 2\nvalue = [1, 1]"] ;
898 -> 900 ;
901 [label="gini = 0.0\nsamples = 1\nvalue = [0, 1]"] ;
900 -> 901 ;
902 [label="gini = 0.0\nsamples = 1\nvalue = [1, 0]"] ;
900 -> 902 ;
903 [label="gini = 0.0\nsamples = 3\nvalue = [0, 3]"] ;
897 -> 903 ;
904 [label="gini = 0.0\nsamples = 16\nvalue = [0, 16]"] ;
894 -> 904 ;
905 [label="hibernateCache <= 1.5\ngini = 0.219\nsamples = 16\nvalue = [2, 14]"] ;
893 -> 905 ;
906 [label="websocket <= 0.5\ngini = 0.219\nsamples = 8\nvalue = [1, 7]"] ;
905 -> 906 ;
907 [label="useSass <= 1.5\ngini = 0.375\nsamples = 4\nvalue = [1, 3]"] ;
906 -> 907 ;
908 [label="gini = 0.0\nsamples = 2\nvalue = [0, 2]"] ;
907 -> 908 ;
909 [label="enableTranslation <= 0.5\ngini = 0.5\nsamples = 2\nvalue = [1, 1]"] ;
907 -> 909 ;
910 [label="gini = 0.0\nsamples = 1\nvalue = [0, 1]"] ;
909 -> 910 ;
911 [label="gini = 0.0\nsamples = 1\nvalue = [1, 0]"] ;
909 -> 911 ;
912 [label="gini = 0.0\nsamples = 4\nvalue = [0, 4]"] ;
906 -> 912 ;
913 [label="enableTranslation <= 0.5\ngini = 0.219\nsamples = 8\nvalue = [1, 7]"] ;
905 -> 913 ;
914 [label="websocket <= 0.5\ngini = 0.375\nsamples = 4\nvalue = [1, 3]"] ;
913 -> 914 ;
915 [label="gini = 0.0\nsamples = 2\nvalue = [0, 2]"] ;
914 -> 915 ;
916 [label="useSass <= 1.5\ngini = 0.5\nsamples = 2\nvalue = [1, 1]"] ;
914 -> 916 ;
917 [label="gini = 0.0\nsamples = 1\nvalue = [1, 0]"] ;
916 -> 917 ;
918 [label="gini = 0.0\nsamples = 1\nvalue = [0, 1]"] ;
916 -> 918 ;
919 [label="gini = 0.0\nsamples = 4\nvalue = [0, 4]"] ;
913 -> 919 ;
920 [label="applicationType <= 0.5\ngini = 0.005\nsamples = 844\nvalue = [2, 842]"] ;
826 -> 920 ;
921 [label="useSass <= 1.5\ngini = 0.015\nsamples = 260\nvalue = [2, 258]"] ;
920 -> 921 ;
922 [label="gini = 0.0\nsamples = 131\nvalue = [0, 131]"] ;
921 -> 922 ;
923 [label="searchEngine <= 0.5\ngini = 0.031\nsamples = 129\nvalue = [2, 127]"] ;
921 -> 923 ;
924 [label="hibernateCache <= 0.5\ngini = 0.061\nsamples = 64\nvalue = [2, 62]"] ;
923 -> 924 ;
925 [label="devDatabaseType <= 4.0\ngini = 0.1\nsamples = 19\nvalue = [1, 18]"] ;
924 -> 925 ;
926 [label="gini = 0.0\nsamples = 14\nvalue = [0, 14]"] ;
925 -> 926 ;
927 [label="websocket <= 0.5\ngini = 0.32\nsamples = 5\nvalue = [1, 4]"] ;
925 -> 927 ;
928 [label="gini = 0.0\nsamples = 3\nvalue = [0, 3]"] ;
927 -> 928 ;
929 [label="buildTool <= 0.5\ngini = 0.5\nsamples = 2\nvalue = [1, 1]"] ;
927 -> 929 ;
930 [label="gini = 0.0\nsamples = 1\nvalue = [0, 1]"] ;
929 -> 930 ;
931 [label="gini = 0.0\nsamples = 1\nvalue = [1, 0]"] ;
929 -> 931 ;
932 [label="devDatabaseType <= 0.5\ngini = 0.043\nsamples = 45\nvalue = [1, 44]"] ;
924 -> 932 ;
933 [label="websocket <= 0.5\ngini = 0.133\nsamples = 14\nvalue = [1, 13]"] ;
932 -> 933 ;
934 [label="enableTranslation <= 0.5\ngini = 0.245\nsamples = 7\nvalue = [1, 6]"] ;
933 -> 934 ;
935 [label="gini = 0.0\nsamples = 4\nvalue = [0, 4]"] ;
934 -> 935 ;
936 [label="hibernateCache <= 1.5\ngini = 0.444\nsamples = 3\nvalue = [1, 2]"] ;
934 -> 936 ;
937 [label="gini = 0.0\nsamples = 1\nvalue = [0, 1]"] ;
936 -> 937 ;
938 [label="buildTool <= 0.5\ngini = 0.5\nsamples = 2\nvalue = [1, 1]"] ;
936 -> 938 ;
939 [label="gini = 0.0\nsamples = 1\nvalue = [1, 0]"] ;
938 -> 939 ;
940 [label="gini = 0.0\nsamples = 1\nvalue = [0, 1]"] ;
938 -> 940 ;
941 [label="gini = 0.0\nsamples = 7\nvalue = [0, 7]"] ;
933 -> 941 ;
942 [label="gini = 0.0\nsamples = 31\nvalue = [0, 31]"] ;
932 -> 942 ;
943 [label="gini = 0.0\nsamples = 65\nvalue = [0, 65]"] ;
923 -> 943 ;
944 [label="gini = 0.0\nsamples = 584\nvalue = [0, 584]"] ;
920 -> 944 ;
945 [label="authenticationType <= 1.5\ngini = 0.298\nsamples = 3080\nvalue = [561, 2519]"] ;
565 -> 945 ;
946 [label="prodDatabaseType <= 4.0\ngini = 0.499\nsamples = 1024\nvalue = [533, 491]"] ;
945 -> 946 ;
947 [label="clusteredHttpSession <= 0.5\ngini = 0.496\nsamples = 519\nvalue = [283, 236]"] ;
946 -> 947 ;
948 [label="devDatabaseType <= 3.0\ngini = 0.478\nsamples = 255\nvalue = [154, 101]"] ;
947 -> 948 ;
949 [label="devDatabaseType <= 0.5\ngini = 0.492\nsamples = 167\nvalue = [94, 73]"] ;
948 -> 949 ;
950 [label="enableTranslation <= 0.5\ngini = 0.462\nsamples = 83\nvalue = [53, 30]"] ;
949 -> 950 ;
951 [label="useSass <= 1.5\ngini = 0.414\nsamples = 41\nvalue = [29, 12]"] ;
950 -> 951 ;
952 [label="searchEngine <= 0.5\ngini = 0.472\nsamples = 21\nvalue = [13, 8]"] ;
951 -> 952 ;
953 [label="hibernateCache <= 0.5\ngini = 0.42\nsamples = 10\nvalue = [7, 3]"] ;
952 -> 953 ;
954 [label="websocket <= 0.5\ngini = 0.5\nsamples = 4\nvalue = [2, 2]"] ;
953 -> 954 ;
955 [label="buildTool <= 0.5\ngini = 0.5\nsamples = 2\nvalue = [1, 1]"] ;
954 -> 955 ;
956 [label="gini = 0.0\nsamples = 1\nvalue = [0, 1]"] ;
955 -> 956 ;
957 [label="gini = 0.0\nsamples = 1\nvalue = [1, 0]"] ;
955 -> 957 ;
958 [label="buildTool <= 0.5\ngini = 0.5\nsamples = 2\nvalue = [1, 1]"] ;
954 -> 958 ;
959 [label="gini = 0.0\nsamples = 1\nvalue = [1, 0]"] ;
958 -> 959 ;
960 [label="gini = 0.0\nsamples = 1\nvalue = [0, 1]"] ;
958 -> 960 ;
961 [label="hibernateCache <= 1.5\ngini = 0.278\nsamples = 6\nvalue = [5, 1]"] ;
953 -> 961 ;
962 [label="gini = 0.0\nsamples = 4\nvalue = [4, 0]"] ;
961 -> 962 ;
963 [label="buildTool <= 0.5\ngini = 0.5\nsamples = 2\nvalue = [1, 1]"] ;
961 -> 963 ;
964 [label="gini = 0.0\nsamples = 1\nvalue = [1, 0]"] ;
963 -> 964 ;
965 [label="gini = 0.0\nsamples = 1\nvalue = [0, 1]"] ;
963 -> 965 ;
966 [label="hibernateCache <= 1.5\ngini = 0.496\nsamples = 11\nvalue = [6, 5]"] ;
952 -> 966 ;
967 [label="hibernateCache <= 0.5\ngini = 0.49\nsamples = 7\nvalue = [3, 4]"] ;
966 -> 967 ;
968 [label="websocket <= 0.5\ngini = 0.444\nsamples = 3\nvalue = [2, 1]"] ;
967 -> 968 ;
969 [label="gini = 0.0\nsamples = 1\nvalue = [1, 0]"] ;
968 -> 969 ;
970 [label="buildTool <= 0.5\ngini = 0.5\nsamples = 2\nvalue = [1, 1]"] ;
968 -> 970 ;
971 [label="gini = 0.0\nsamples = 1\nvalue = [1, 0]"] ;
970 -> 971 ;
972 [label="gini = 0.0\nsamples = 1\nvalue = [0, 1]"] ;
970 -> 972 ;
973 [label="buildTool <= 0.5\ngini = 0.375\nsamples = 4\nvalue = [1, 3]"] ;
967 -> 973 ;
974 [label="gini = 0.0\nsamples = 2\nvalue = [0, 2]"] ;
973 -> 974 ;
975 [label="websocket <= 0.5\ngini = 0.5\nsamples = 2\nvalue = [1, 1]"] ;
973 -> 975 ;
976 [label="gini = 0.0\nsamples = 1\nvalue = [1, 0]"] ;
975 -> 976 ;
977 [label="gini = 0.0\nsamples = 1\nvalue = [0, 1]"] ;
975 -> 977 ;
978 [label="buildTool <= 0.5\ngini = 0.375\nsamples = 4\nvalue = [3, 1]"] ;
966 -> 978 ;
979 [label="gini = 0.0\nsamples = 2\nvalue = [2, 0]"] ;
978 -> 979 ;
980 [label="websocket <= 0.5\ngini = 0.5\nsamples = 2\nvalue = [1, 1]"] ;
978 -> 980 ;
981 [label="gini = 0.0\nsamples = 1\nvalue = [0, 1]"] ;
980 -> 981 ;
982 [label="gini = 0.0\nsamples = 1\nvalue = [1, 0]"] ;
980 -> 982 ;
983 [label="hibernateCache <= 0.5\ngini = 0.32\nsamples = 20\nvalue = [16, 4]"] ;
951 -> 983 ;
984 [label="gini = 0.0\nsamples = 6\nvalue = [6, 0]"] ;
983 -> 984 ;
985 [label="buildTool <= 0.5\ngini = 0.408\nsamples = 14\nvalue = [10, 4]"] ;
983 -> 985 ;
986 [label="searchEngine <= 0.5\ngini = 0.5\nsamples = 6\nvalue = [3, 3]"] ;
985 -> 986 ;
987 [label="websocket <= 0.5\ngini = 0.444\nsamples = 3\nvalue = [2, 1]"] ;
986 -> 987 ;
988 [label="gini = 0.0\nsamples = 1\nvalue = [1, 0]"] ;
987 -> 988 ;
989 [label="hibernateCache <= 1.5\ngini = 0.5\nsamples = 2\nvalue = [1, 1]"] ;
987 -> 989 ;
990 [label="gini = 0.0\nsamples = 1\nvalue = [1, 0]"] ;
989 -> 990 ;
991 [label="gini = 0.0\nsamples = 1\nvalue = [0, 1]"] ;
989 -> 991 ;
992 [label="hibernateCache <= 1.5\ngini = 0.444\nsamples = 3\nvalue = [1, 2]"] ;
986 -> 992 ;
993 [label="gini = 0.0\nsamples = 2\nvalue = [0, 2]"] ;
992 -> 993 ;
994 [label="gini = 0.0\nsamples = 1\nvalue = [1, 0]"] ;
992 -> 994 ;
995 [label="hibernateCache <= 1.5\ngini = 0.219\nsamples = 8\nvalue = [7, 1]"] ;
985 -> 995 ;
996 [label="searchEngine <= 0.5\ngini = 0.375\nsamples = 4\nvalue = [3, 1]"] ;
995 -> 996 ;
997 [label="websocket <= 0.5\ngini = 0.5\nsamples = 2\nvalue = [1, 1]"] ;
996 -> 997 ;
998 [label="gini = 0.0\nsamples = 1\nvalue = [1, 0]"] ;
997 -> 998 ;
999 [label="gini = 0.0\nsamples = 1\nvalue = [0, 1]"] ;
997 -> 999 ;
1000 [label="gini = 0.0\nsamples = 2\nvalue = [2, 0]"] ;
996 -> 1000 ;
1001 [label="gini = 0.0\nsamples = 4\nvalue = [4, 0]"] ;
995 -> 1001 ;
1002 [label="hibernateCache <= 1.5\ngini = 0.49\nsamples = 42\nvalue = [24, 18]"] ;
950 -> 1002 ;
1003 [label="buildTool <= 0.5\ngini = 0.466\nsamples = 27\nvalue = [17, 10]"] ;
1002 -> 1003 ;
1004 [label="searchEngine <= 0.5\ngini = 0.355\nsamples = 13\nvalue = [10, 3]"] ;
1003 -> 1004 ;
1005 [label="hibernateCache <= 0.5\ngini = 0.49\nsamples = 7\nvalue = [4, 3]"] ;
1004 -> 1005 ;
1006 [label="websocket <= 0.5\ngini = 0.444\nsamples = 3\nvalue = [1, 2]"] ;
1005 -> 1006 ;
1007 [label="gini = 0.0\nsamples = 1\nvalue = [1, 0]"] ;
1006 -> 1007 ;
1008 [label="gini = 0.0\nsamples = 2\nvalue = [0, 2]"] ;
1006 -> 1008 ;
1009 [label="useSass <= 1.5\ngini = 0.375\nsamples = 4\nvalue = [3, 1]"] ;
1005 -> 1009 ;
1010 [label="websocket <= 0.5\ngini = 0.5\nsamples = 2\nvalue = [1, 1]"] ;
1009 -> 1010 ;
1011 [label="gini = 0.0\nsamples = 1\nvalue = [0, 1]"] ;
1010 -> 1011 ;
1012 [label="gini = 0.0\nsamples = 1\nvalue = [1, 0]"] ;
1010 -> 1012 ;
1013 [label="gini = 0.0\nsamples = 2\nvalue = [2, 0]"] ;
1009 -> 1013 ;
1014 [label="gini = 0.0\nsamples = 6\nvalue = [6, 0]"] ;
1004 -> 1014 ;
1015 [label="useSass <= 1.5\ngini = 0.5\nsamples = 14\nvalue = [7, 7]"] ;
1003 -> 1015 ;
1016 [label="websocket <= 0.5\ngini = 0.408\nsamples = 7\nvalue = [5, 2]"] ;
1015 -> 1016 ;
1017 [label="hibernateCache <= 0.5\ngini = 0.5\nsamples = 4\nvalue = [2, 2]"] ;
1016 -> 1017 ;
1018 [label="gini = 0.0\nsamples = 2\nvalue = [2, 0]"] ;
1017 -> 1018 ;
1019 [label="gini = 0.0\nsamples = 2\nvalue = [0, 2]"] ;
1017 -> 1019 ;
1020 [label="gini = 0.0\nsamples = 3\nvalue = [3, 0]"] ;
1016 -> 1020 ;
1021 [label="hibernateCache <= 0.5\ngini = 0.408\nsamples = 7\nvalue = [2, 5]"] ;
1015 -> 1021 ;
1022 [label="searchEngine <= 0.5\ngini = 0.375\nsamples = 4\nvalue = [1, 3]"] ;
1021 -> 1022 ;
1023 [label="gini = 0.0\nsamples = 2\nvalue = [0, 2]"] ;
1022 -> 1023 ;
1024 [label="websocket <= 0.5\ngini = 0.5\nsamples = 2\nvalue = [1, 1]"] ;
1022 -> 1024 ;
1025 [label="gini = 0.0\nsamples = 1\nvalue = [0, 1]"] ;
1024 -> 1025 ;
1026 [label="gini = 0.0\nsamples = 1\nvalue = [1, 0]"] ;
1024 -> 1026 ;
1027 [label="websocket <= 0.5\ngini = 0.444\nsamples = 3\nvalue = [1, 2]"] ;
1021 -> 1027 ;
1028 [label="gini = 0.0\nsamples = 1\nvalue = [1, 0]"] ;
1027 -> 1028 ;
1029 [label="gini = 0.0\nsamples = 2\nvalue = [0, 2]"] ;
1027 -> 1029 ;
1030 [label="searchEngine <= 0.5\ngini = 0.498\nsamples = 15\nvalue = [7, 8]"] ;
1002 -> 1030 ;
1031 [label="buildTool <= 0.5\ngini = 0.469\nsamples = 8\nvalue = [5, 3]"] ;
1030 -> 1031 ;
1032 [label="websocket <= 0.5\ngini = 0.5\nsamples = 4\nvalue = [2, 2]"] ;
1031 -> 1032 ;
1033 [label="gini = 0.0\nsamples = 2\nvalue = [0, 2]"] ;
1032 -> 1033 ;
1034 [label="gini = 0.0\nsamples = 2\nvalue = [2, 0]"] ;
1032 -> 1034 ;
1035 [label="websocket <= 0.5\ngini = 0.375\nsamples = 4\nvalue = [3, 1]"] ;
1031 -> 1035 ;
1036 [label="gini = 0.0\nsamples = 2\nvalue = [2, 0]"] ;
1035 -> 1036 ;
1037 [label="useSass <= 1.5\ngini = 0.5\nsamples = 2\nvalue = [1, 1]"] ;
1035 -> 1037 ;
1038 [label="gini = 0.0\nsamples = 1\nvalue = [0, 1]"] ;
1037 -> 1038 ;
1039 [label="gini = 0.0\nsamples = 1\nvalue = [1, 0]"] ;
1037 -> 1039 ;
1040 [label="useSass <= 1.5\ngini = 0.408\nsamples = 7\nvalue = [2, 5]"] ;
1030 -> 1040 ;
1041 [label="buildTool <= 0.5\ngini = 0.444\nsamples = 3\nvalue = [1, 2]"] ;
1040 -> 1041 ;
1042 [label="gini = 0.0\nsamples = 1\nvalue = [1, 0]"] ;
1041 -> 1042 ;
1043 [label="gini = 0.0\nsamples = 2\nvalue = [0, 2]"] ;
1041 -> 1043 ;
1044 [label="websocket <= 0.5\ngini = 0.375\nsamples = 4\nvalue = [1, 3]"] ;
1040 -> 1044 ;
1045 [label="gini = 0.0\nsamples = 2\nvalue = [0, 2]"] ;
1044 -> 1045 ;
1046 [label="buildTool <= 0.5\ngini = 0.5\nsamples = 2\nvalue = [1, 1]"] ;
1044 -> 1046 ;
1047 [label="gini = 0.0\nsamples = 1\nvalue = [0, 1]"] ;
1046 -> 1047 ;
1048 [label="gini = 0.0\nsamples = 1\nvalue = [1, 0]"] ;
1046 -> 1048 ;
1049 [label="useSass <= 1.5\ngini = 0.5\nsamples = 84\nvalue = [41, 43]"] ;
949 -> 1049 ;
1050 [label="enableTranslation <= 0.5\ngini = 0.493\nsamples = 41\nvalue = [23, 18]"] ;
1049 -> 1050 ;
1051 [label="hibernateCache <= 1.5\ngini = 0.495\nsamples = 20\nvalue = [9, 11]"] ;
1050 -> 1051 ;
1052 [label="buildTool <= 0.5\ngini = 0.497\nsamples = 13\nvalue = [7, 6]"] ;
1051 -> 1052 ;
1053 [label="websocket <= 0.5\ngini = 0.408\nsamples = 7\nvalue = [2, 5]"] ;
1052 -> 1053 ;
1054 [label="gini = 0.0\nsamples = 3\nvalue = [0, 3]"] ;
1053 -> 1054 ;
1055 [label="searchEngine <= 0.5\ngini = 0.5\nsamples = 4\nvalue = [2, 2]"] ;
1053 -> 1055 ;
1056 [label="hibernateCache <= 0.5\ngini = 0.5\nsamples = 2\nvalue = [1, 1]"] ;
1055 -> 1056 ;
1057 [label="gini = 0.0\nsamples = 1\nvalue = [0, 1]"] ;
1056 -> 1057 ;
1058 [label="gini = 0.0\nsamples = 1\nvalue = [1, 0]"] ;
1056 -> 1058 ;
1059 [label="hibernateCache <= 0.5\ngini = 0.5\nsamples = 2\nvalue = [1, 1]"] ;
1055 -> 1059 ;
1060 [label="gini = 0.0\nsamples = 1\nvalue = [1, 0]"] ;
1059 -> 1060 ;
1061 [label="gini = 0.0\nsamples = 1\nvalue = [0, 1]"] ;
1059 -> 1061 ;
1062 [label="searchEngine <= 0.5\ngini = 0.278\nsamples = 6\nvalue = [5, 1]"] ;
1052 -> 1062 ;
1063 [label="gini = 0.0\nsamples = 3\nvalue = [3, 0]"] ;
1062 -> 1063 ;
1064 [label="hibernateCache <= 0.5\ngini = 0.444\nsamples = 3\nvalue = [2, 1]"] ;
1062 -> 1064 ;
1065 [label="websocket <= 0.5\ngini = 0.5\nsamples = 2\nvalue = [1, 1]"] ;
1064 -> 1065 ;
1066 [label="gini = 0.0\nsamples = 1\nvalue = [1, 0]"] ;
1065 -> 1066 ;
1067 [label="gini = 0.0\nsamples = 1\nvalue = [0, 1]"] ;
1065 -> 1067 ;
1068 [label="gini = 0.0\nsamples = 1\nvalue = [1, 0]"] ;
1064 -> 1068 ;
1069 [label="buildTool <= 0.5\ngini = 0.408\nsamples = 7\nvalue = [2, 5]"] ;
1051 -> 1069 ;
1070 [label="searchEngine <= 0.5\ngini = 0.444\nsamples = 3\nvalue = [2, 1]"] ;
1069 -> 1070 ;
1071 [label="gini = 0.0\nsamples = 1\nvalue = [0, 1]"] ;
1070 -> 1071 ;
1072 [label="gini = 0.0\nsamples = 2\nvalue = [2, 0]"] ;
1070 -> 1072 ;
1073 [label="gini = 0.0\nsamples = 4\nvalue = [0, 4]"] ;
1069 -> 1073 ;
1074 [label="websocket <= 0.5\ngini = 0.444\nsamples = 21\nvalue = [14, 7]"] ;
1050 -> 1074 ;
1075 [label="buildTool <= 0.5\ngini = 0.486\nsamples = 12\nvalue = [7, 5]"] ;
1074 -> 1075 ;
1076 [label="hibernateCache <= 0.5\ngini = 0.444\nsamples = 6\nvalue = [2, 4]"] ;
1075 -> 1076 ;
1077 [label="searchEngine <= 0.5\ngini = 0.5\nsamples = 2\nvalue = [1, 1]"] ;
1076 -> 1077 ;
1078 [label="gini = 0.0\nsamples = 1\nvalue = [0, 1]"] ;
1077 -> 1078 ;
1079 [label="gini = 0.0\nsamples = 1\nvalue = [1, 0]"] ;
1077 -> 1079 ;
1080 [label="hibernateCache <= 1.5\ngini = 0.375\nsamples = 4\nvalue = [1, 3]"] ;
1076 -> 1080 ;
1081 [label="gini = 0.0\nsamples = 2\nvalue = [0, 2]"] ;
1080 -> 1081 ;
1082 [label="searchEngine <= 0.5\ngini = 0.5\nsamples = 2\nvalue = [1, 1]"] ;
1080 -> 1082 ;
1083 [label="gini = 0.0\nsamples = 1\nvalue = [1, 0]"] ;
1082 -> 1083 ;
1084 [label="gini = 0.0\nsamples = 1\nvalue = [0, 1]"] ;
1082 -> 1084 ;
1085 [label="hibernateCache <= 1.5\ngini = 0.278\nsamples = 6\nvalue = [5, 1]"] ;
1075 -> 1085 ;
1086 [label="gini = 0.0\nsamples = 4\nvalue = [4, 0]"] ;
1085 -> 1086 ;
1087 [label="searchEngine <= 0.5\ngini = 0.5\nsamples = 2\nvalue = [1, 1]"] ;
1085 -> 1087 ;
1088 [label="gini = 0.0\nsamples = 1\nvalue = [1, 0]"] ;
1087 -> 1088 ;
1089 [label="gini = 0.0\nsamples = 1\nvalue = [0, 1]"] ;
1087 -> 1089 ;
1090 [label="buildTool <= 0.5\ngini = 0.346\nsamples = 9\nvalue = [7, 2]"] ;
1074 -> 1090 ;
1091 [label="gini = 0.0\nsamples = 4\nvalue = [4, 0]"] ;
1090 -> 1091 ;
1092 [label="hibernateCache <= 1.5\ngini = 0.48\nsamples = 5\nvalue = [3, 2]"] ;
1090 -> 1092 ;
1093 [label="hibernateCache <= 0.5\ngini = 0.444\nsamples = 3\nvalue = [1, 2]"] ;
1092 -> 1093 ;
1094 [label="searchEngine <= 0.5\ngini = 0.5\nsamples = 2\nvalue = [1, 1]"] ;
1093 -> 1094 ;
1095 [label="gini = 0.0\nsamples = 1\nvalue = [1, 0]"] ;
1094 -> 1095 ;
1096 [label="gini = 0.0\nsamples = 1\nvalue = [0, 1]"] ;
1094 -> 1096 ;
1097 [label="gini = 0.0\nsamples = 1\nvalue = [0, 1]"] ;
1093 -> 1097 ;
1098 [label="gini = 0.0\nsamples = 2\nvalue = [2, 0]"] ;
1092 -> 1098 ;
1099 [label="hibernateCache <= 1.5\ngini = 0.487\nsamples = 43\nvalue = [18, 25]"] ;
1049 -> 1099 ;
1100 [label="hibernateCache <= 0.5\ngini = 0.452\nsamples = 29\nvalue = [10, 19]"] ;
1099 -> 1100 ;
1101 [label="websocket <= 0.5\ngini = 0.498\nsamples = 15\nvalue = [7, 8]"] ;
1100 -> 1101 ;
1102 [label="enableTranslation <= 0.5\ngini = 0.469\nsamples = 8\nvalue = [5, 3]"] ;
1101 -> 1102 ;
1103 [label="searchEngine <= 0.5\ngini = 0.5\nsamples = 4\nvalue = [2, 2]"] ;
1102 -> 1103 ;
1104 [label="gini = 0.0\nsamples = 2\nvalue = [0, 2]"] ;
1103 -> 1104 ;
1105 [label="gini = 0.0\nsamples = 2\nvalue = [2, 0]"] ;
1103 -> 1105 ;
1106 [label="buildTool <= 0.5\ngini = 0.375\nsamples = 4\nvalue = [3, 1]"] ;
1102 -> 1106 ;
1107 [label="gini = 0.0\nsamples = 2\nvalue = [2, 0]"] ;
1106 -> 1107 ;
1108 [label="searchEngine <= 0.5\ngini = 0.5\nsamples = 2\nvalue = [1, 1]"] ;
1106 -> 1108 ;
1109 [label="gini = 0.0\nsamples = 1\nvalue = [1, 0]"] ;
1108 -> 1109 ;
1110 [label="gini = 0.0\nsamples = 1\nvalue = [0, 1]"] ;
1108 -> 1110 ;
1111 [label="enableTranslation <= 0.5\ngini = 0.408\nsamples = 7\nvalue = [2, 5]"] ;
1101 -> 1111 ;
1112 [label="searchEngine <= 0.5\ngini = 0.444\nsamples = 3\nvalue = [2, 1]"] ;
1111 -> 1112 ;
1113 [label="gini = 0.0\nsamples = 2\nvalue = [2, 0]"] ;
1112 -> 1113 ;
1114 [label="gini = 0.0\nsamples = 1\nvalue = [0, 1]"] ;
1112 -> 1114 ;
1115 [label="gini = 0.0\nsamples = 4\nvalue = [0, 4]"] ;
1111 -> 1115 ;
1116 [label="websocket <= 0.5\ngini = 0.337\nsamples = 14\nvalue = [3, 11]"] ;
1100 -> 1116 ;
1117 [label="gini = 0.0\nsamples = 7\nvalue = [0, 7]"] ;
1116 -> 1117 ;
1118 [label="buildTool <= 0.5\ngini = 0.49\nsamples = 7\nvalue = [3, 4]"] ;
1116 -> 1118 ;
1119 [label="gini = 0.0\nsamples = 3\nvalue = [0, 3]"] ;
1118 -> 1119 ;
1120 [label="searchEngine <= 0.5\ngini = 0.375\nsamples = 4\nvalue = [3, 1]"] ;
1118 -> 1120 ;
1121 [label="gini = 0.0\nsamples = 2\nvalue = [2, 0]"] ;
1120 -> 1121 ;
1122 [label="enableTranslation <= 0.5\ngini = 0.5\nsamples = 2\nvalue = [1, 1]"] ;
1120 -> 1122 ;
1123 [label="gini = 0.0\nsamples = 1\nvalue = [0, 1]"] ;
1122 -> 1123 ;
1124 [label="gini = 0.0\nsamples = 1\nvalue = [1, 0]"] ;
1122 -> 1124 ;
1125 [label="enableTranslation <= 0.5\ngini = 0.49\nsamples = 14\nvalue = [8, 6]"] ;
1099 -> 1125 ;
1126 [label="searchEngine <= 0.5\ngini = 0.245\nsamples = 7\nvalue = [6, 1]"] ;
1125 -> 1126 ;
1127 [label="gini = 0.0\nsamples = 4\nvalue = [4, 0]"] ;
1126 -> 1127 ;
1128 [label="buildTool <= 0.5\ngini = 0.444\nsamples = 3\nvalue = [2, 1]"] ;
1126 -> 1128 ;
1129 [label="gini = 0.0\nsamples = 2\nvalue = [2, 0]"] ;
1128 -> 1129 ;
1130 [label="gini = 0.0\nsamples = 1\nvalue = [0, 1]"] ;
1128 -> 1130 ;
1131 [label="searchEngine <= 0.5\ngini = 0.408\nsamples = 7\nvalue = [2, 5]"] ;
1125 -> 1131 ;
1132 [label="buildTool <= 0.5\ngini = 0.444\nsamples = 3\nvalue = [1, 2]"] ;
1131 -> 1132 ;
1133 [label="gini = 0.0\nsamples = 1\nvalue = [0, 1]"] ;
1132 -> 1133 ;
1134 [label="websocket <= 0.5\ngini = 0.5\nsamples = 2\nvalue = [1, 1]"] ;
1132 -> 1134 ;
1135 [label="gini = 0.0\nsamples = 1\nvalue = [1, 0]"] ;
1134 -> 1135 ;
1136 [label="gini = 0.0\nsamples = 1\nvalue = [0, 1]"] ;
1134 -> 1136 ;
1137 [label="websocket <= 0.5\ngini = 0.375\nsamples = 4\nvalue = [1, 3]"] ;
1131 -> 1137 ;
1138 [label="gini = 0.0\nsamples = 2\nvalue = [0, 2]"] ;
1137 -> 1138 ;
1139 [label="buildTool <= 0.5\ngini = 0.5\nsamples = 2\nvalue = [1, 1]"] ;
1137 -> 1139 ;
1140 [label="gini = 0.0\nsamples = 1\nvalue = [1, 0]"] ;
1139 -> 1140 ;
1141 [label="gini = 0.0\nsamples = 1\nvalue = [0, 1]"] ;
1139 -> 1141 ;
1142 [label="enableTranslation <= 0.5\ngini = 0.434\nsamples = 88\nvalue = [60, 28]"] ;
948 -> 1142 ;
1143 [label="hibernateCache <= 0.5\ngini = 0.386\nsamples = 46\nvalue = [34, 12]"] ;
1142 -> 1143 ;
1144 [label="searchEngine <= 0.5\ngini = 0.48\nsamples = 15\nvalue = [9, 6]"] ;
1143 -> 1144 ;
1145 [label="websocket <= 0.5\ngini = 0.375\nsamples = 8\nvalue = [6, 2]"] ;
1144 -> 1145 ;
1146 [label="useSass <= 1.5\ngini = 0.5\nsamples = 4\nvalue = [2, 2]"] ;
1145 -> 1146 ;
1147 [label="gini = 0.0\nsamples = 2\nvalue = [0, 2]"] ;
1146 -> 1147 ;
1148 [label="gini = 0.0\nsamples = 2\nvalue = [2, 0]"] ;
1146 -> 1148 ;
1149 [label="gini = 0.0\nsamples = 4\nvalue = [4, 0]"] ;
1145 -> 1149 ;
1150 [label="websocket <= 0.5\ngini = 0.49\nsamples = 7\nvalue = [3, 4]"] ;
1144 -> 1150 ;
1151 [label="buildTool <= 0.5\ngini = 0.375\nsamples = 4\nvalue = [3, 1]"] ;
1150 -> 1151 ;
1152 [label="useSass <= 1.5\ngini = 0.5\nsamples = 2\nvalue = [1, 1]"] ;
1151 -> 1152 ;
1153 [label="gini = 0.0\nsamples = 1\nvalue = [1, 0]"] ;
1152 -> 1153 ;
1154 [label="gini = 0.0\nsamples = 1\nvalue = [0, 1]"] ;
1152 -> 1154 ;
1155 [label="gini = 0.0\nsamples = 2\nvalue = [2, 0]"] ;
1151 -> 1155 ;
1156 [label="gini = 0.0\nsamples = 3\nvalue = [0, 3]"] ;
1150 -> 1156 ;
1157 [label="searchEngine <= 0.5\ngini = 0.312\nsamples = 31\nvalue = [25, 6]"] ;
1143 -> 1157 ;
1158 [label="hibernateCache <= 1.5\ngini = 0.391\nsamples = 15\nvalue = [11, 4]"] ;
1157 -> 1158 ;
1159 [label="useSass <= 1.5\ngini = 0.245\nsamples = 7\nvalue = [6, 1]"] ;
1158 -> 1159 ;
1160 [label="websocket <= 0.5\ngini = 0.444\nsamples = 3\nvalue = [2, 1]"] ;
1159 -> 1160 ;
1161 [label="gini = 0.0\nsamples = 1\nvalue = [1, 0]"] ;
1160 -> 1161 ;
1162 [label="buildTool <= 0.5\ngini = 0.5\nsamples = 2\nvalue = [1, 1]"] ;
1160 -> 1162 ;
1163 [label="gini = 0.0\nsamples = 1\nvalue = [1, 0]"] ;
1162 -> 1163 ;
1164 [label="gini = 0.0\nsamples = 1\nvalue = [0, 1]"] ;
1162 -> 1164 ;
1165 [label="gini = 0.0\nsamples = 4\nvalue = [4, 0]"] ;
1159 -> 1165 ;
1166 [label="useSass <= 1.5\ngini = 0.469\nsamples = 8\nvalue = [5, 3]"] ;
1158 -> 1166 ;
1167 [label="websocket <= 0.5\ngini = 0.375\nsamples = 4\nvalue = [3, 1]"] ;
1166 -> 1167 ;
1168 [label="buildTool <= 0.5\ngini = 0.5\nsamples = 2\nvalue = [1, 1]"] ;
1167 -> 1168 ;
1169 [label="gini = 0.0\nsamples = 1\nvalue = [1, 0]"] ;
1168 -> 1169 ;
1170 [label="gini = 0.0\nsamples = 1\nvalue = [0, 1]"] ;
1168 -> 1170 ;
1171 [label="gini = 0.0\nsamples = 2\nvalue = [2, 0]"] ;
1167 -> 1171 ;
1172 [label="buildTool <= 0.5\ngini = 0.5\nsamples = 4\nvalue = [2, 2]"] ;
1166 -> 1172 ;
1173 [label="gini = 0.0\nsamples = 2\nvalue = [0, 2]"] ;
1172 -> 1173 ;
1174 [label="gini = 0.0\nsamples = 2\nvalue = [2, 0]"] ;
1172 -> 1174 ;
1175 [label="websocket <= 0.5\ngini = 0.219\nsamples = 16\nvalue = [14, 2]"] ;
1157 -> 1175 ;
1176 [label="gini = 0.0\nsamples = 8\nvalue = [8, 0]"] ;
1175 -> 1176 ;
1177 [label="useSass <= 1.5\ngini = 0.375\nsamples = 8\nvalue = [6, 2]"] ;
1175 -> 1177 ;
1178 [label="hibernateCache <= 1.5\ngini = 0.375\nsamples = 4\nvalue = [3, 1]"] ;
1177 -> 1178 ;
1179 [label="buildTool <= 0.5\ngini = 0.5\nsamples = 2\nvalue = [1, 1]"] ;
1178 -> 1179 ;
1180 [label="gini = 0.0\nsamples = 1\nvalue = [1, 0]"] ;
1179 -> 1180 ;
1181 [label="gini = 0.0\nsamples = 1\nvalue = [0, 1]"] ;
1179 -> 1181 ;
1182 [label="gini = 0.0\nsamples = 2\nvalue = [2, 0]"] ;
1178 -> 1182 ;
1183 [label="hibernateCache <= 1.5\ngini = 0.375\nsamples = 4\nvalue = [3, 1]"] ;
1177 -> 1183 ;
1184 [label="gini = 0.0\nsamples = 2\nvalue = [2, 0]"] ;
1183 -> 1184 ;
1185 [label="buildTool <= 0.5\ngini = 0.5\nsamples = 2\nvalue = [1, 1]"] ;
1183 -> 1185 ;
1186 [label="gini = 0.0\nsamples = 1\nvalue = [0, 1]"] ;
1185 -> 1186 ;
1187 [label="gini = 0.0\nsamples = 1\nvalue = [1, 0]"] ;
1185 -> 1187 ;
1188 [label="buildTool <= 0.5\ngini = 0.472\nsamples = 42\nvalue = [26, 16]"] ;
1142 -> 1188 ;
1189 [label="searchEngine <= 0.5\ngini = 0.397\nsamples = 22\nvalue = [16, 6]"] ;
1188 -> 1189 ;
1190 [label="hibernateCache <= 0.5\ngini = 0.486\nsamples = 12\nvalue = [7, 5]"] ;
1189 -> 1190 ;
1191 [label="useSass <= 1.5\ngini = 0.375\nsamples = 4\nvalue = [3, 1]"] ;
1190 -> 1191 ;
1192 [label="gini = 0.0\nsamples = 2\nvalue = [2, 0]"] ;
1191 -> 1192 ;
1193 [label="websocket <= 0.5\ngini = 0.5\nsamples = 2\nvalue = [1, 1]"] ;
1191 -> 1193 ;
1194 [label="gini = 0.0\nsamples = 1\nvalue = [0, 1]"] ;
1193 -> 1194 ;
1195 [label="gini = 0.0\nsamples = 1\nvalue = [1, 0]"] ;
1193 -> 1195 ;
1196 [label="websocket <= 0.5\ngini = 0.5\nsamples = 8\nvalue = [4, 4]"] ;
1190 -> 1196 ;
1197 [label="useSass <= 1.5\ngini = 0.375\nsamples = 4\nvalue = [3, 1]"] ;
1196 -> 1197 ;
1198 [label="hibernateCache <= 1.5\ngini = 0.5\nsamples = 2\nvalue = [1, 1]"] ;
1197 -> 1198 ;
1199 [label="gini = 0.0\nsamples = 1\nvalue = [1, 0]"] ;
1198 -> 1199 ;
1200 [label="gini = 0.0\nsamples = 1\nvalue = [0, 1]"] ;
1198 -> 1200 ;
1201 [label="gini = 0.0\nsamples = 2\nvalue = [2, 0]"] ;
1197 -> 1201 ;
1202 [label="useSass <= 1.5\ngini = 0.375\nsamples = 4\nvalue = [1, 3]"] ;
1196 -> 1202 ;
1203 [label="hibernateCache <= 1.5\ngini = 0.5\nsamples = 2\nvalue = [1, 1]"] ;
1202 -> 1203 ;
1204 [label="gini = 0.0\nsamples = 1\nvalue = [0, 1]"] ;
1203 -> 1204 ;
1205 [label="gini = 0.0\nsamples = 1\nvalue = [1, 0]"] ;
1203 -> 1205 ;
1206 [label="gini = 0.0\nsamples = 2\nvalue = [0, 2]"] ;
1202 -> 1206 ;
1207 [label="hibernateCache <= 1.5\ngini = 0.18\nsamples = 10\nvalue = [9, 1]"] ;
1189 -> 1207 ;
1208 [label="gini = 0.0\nsamples = 6\nvalue = [6, 0]"] ;
1207 -> 1208 ;
1209 [label="useSass <= 1.5\ngini = 0.375\nsamples = 4\nvalue = [3, 1]"] ;
1207 -> 1209 ;
1210 [label="websocket <= 0.5\ngini = 0.5\nsamples = 2\nvalue = [1, 1]"] ;
1209 -> 1210 ;
1211 [label="gini = 0.0\nsamples = 1\nvalue = [0, 1]"] ;
1210 -> 1211 ;
1212 [label="gini = 0.0\nsamples = 1\nvalue = [1, 0]"] ;
1210 -> 1212 ;
1213 [label="gini = 0.0\nsamples = 2\nvalue = [2, 0]"] ;
1209 -> 1213 ;
1214 [label="hibernateCache <= 0.5\ngini = 0.5\nsamples = 20\nvalue = [10, 10]"] ;
1188 -> 1214 ;
1215 [label="searchEngine <= 0.5\ngini = 0.49\nsamples = 7\nvalue = [4, 3]"] ;
1214 -> 1215 ;
1216 [label="useSass <= 1.5\ngini = 0.375\nsamples = 4\nvalue = [3, 1]"] ;
1215 -> 1216 ;
1217 [label="gini = 0.0\nsamples = 2\nvalue = [2, 0]"] ;
1216 -> 1217 ;
1218 [label="websocket <= 0.5\ngini = 0.5\nsamples = 2\nvalue = [1, 1]"] ;
1216 -> 1218 ;
